34 64
1 -0.01679576 0.29727516 0.11775155 0.30983552 0.25099275 -0.26081923 -0.0036822853 0.16000764 -0.07140453 -0.03836241 0.12333266 -0.24554014 -0.20767935 0.05109311 0.10380454 0.13083847 0.1125688 -0.18308012 -0.03921198 -0.07111933 0.028827123 -0.15464254 -0.003636867 0.06188444 0.24643758 0.043193 0.06769925 -0.028625 0.19594839 0.22362174 -0.19096906 0.27217948 0.16734329 -0.12973775 -0.030282835 -0.14697398 0.15250911 -0.091813095 -0.15900706 0.070791595 -0.20031999 -0.15187074 0.23071454 0.1680441 0.29377934 0.10833151 0.03482388 -0.05029057 -0.26640657 -0.269148 -0.16890708 0.30592662 -0.02253423 0.07259225 -0.074777685 -0.16306503 0.004405342 0.09481387 -0.057362527 0.10729376 -0.035858165 0.13755444 -0.023982598 0.0361914
34 -0.07557336 0.21147709 0.02847961 0.09655812 0.1411817 0.0013260669 -0.116502784 -0.0029232125 0.39921373 -0.18888764 0.027513994 -0.0056174085 0.09615038 0.05153004 0.08567225 0.25354236 -0.026675014 0.011200025 -0.15156811 0.13796997 -0.16240492 -0.08495308 -0.1945924 -0.11291747 0.01499819 -0.010853859 0.21354596 -0.19037814 0.002138682 -0.011687736 0.16401823 0.2764091 0.16989455 0.031460065 0.18852584 -0.38028458 0.21844997 0.2714738 -0.35451317 0.2042013 -0.17232244 -0.027259508 0.18390359 0.04643879 0.06690713 0.29135922 -0.15662915 -0.081111915 -0.08097312 0.012289883 -0.17654274 0.26948115 0.05506551 -0.19945076 0.046898242 -0.16628163 -0.33876657 0.016005354 0.0043856977 -0.26137522 0.15909359 0.13884065 0.04252513 -0.21363713
33 0.041700225 0.2390306 -0.019987455 0.12582189 0.032170847 0.14561658 -0.17040288 -0.0028317757 0.43855268 -0.19146648 -0.0049258126 0.10471031 0.09353553 0.20644113 0.09163454 0.23744774 -0.053596053 0.08575786 -0.122456774 0.21104662 -0.16156736 -0.0025430406 -0.11968893 -0.19793811 0.029736664 -0.00906169 0.24689889 -0.12177028 0.031110581 0.0515048 0.061829142 0.13239811 0.14405115 0.042457603 0.11963863 -0.37133938 0.22871757 0.26054943 -0.40243724 0.21856429 -0.1709481 0.06286821 0.1134404 0.09963752 0.052106775 0.2524628 -0.22325125 -0.06488877 0.052273724 0.047728557 -0.08066802 0.36669073 0.038631838 -0.22703932 0.08460991 -0.34839964 -0.420085 0.018639607 0.02002117 -0.24820288 0.20620778 0.20161325 0.17004897 -0.2415201
3 0.0125855515 0.3482566 -0.007406133 0.20525403 0.08285875 -0.13264365 -0.09814687 0.06711576 0.11677056 -0.18105517 0.004304513 -0.039844856 -0.15498723 0.13904817 0.110009655 0.13444805 0.07776366 -0.050853424 -0.15272644 0.042741787 -0.08121244 -0.068348415 -0.089611396 -0.04218164 0.23219353 0.0045950306 0.08847314 -0.1230477 0.038070552 0.14111151 -0.102860734 0.24018566 0.14123449 -0.06535637 0.08502687 -0.1931901 0.14034367 0.1619117 -0.30191633 0.19712491 -0.12921515 -0.13986984 0.1371341 0.22476873 0.15755735 0.06893544 -0.026830142 -0.05242225 -0.08295351 -0.16793902 -0.12864998 0.50828093 -0.047598947 -0.03679329 0.013716325 -0.18596905 -0.18467346 -0.0025147453 0.041324455 0.021255681 -0.00361287 0.14480881 0.012702516 -0.14766145
2 0.10107312 0.36219314 0.0026367065 0.29941186 0.101595365 -0.13396181 -0.062178075 0.12175104 -0.017820453 -0.20764755 4.9202426e-05 -0.12245479 -0.23020864 0.16108532 0.12540793 0.0889443 0.094979055 -0.10021831 -0.12246427 -0.0024818722 -0.025757428 -0.078458525 -0.005101418 -0.029481554 0.27827847 0.04380405 0.0958986 -0.034698583 0.094375685 0.23670377 -0.24105176 0.14122857 0.15084931 -0.10847116 0.010456986 -0.07041829 0.105658315 0.024625203 -0.26834196 0.14926887 -0.11900697 -0.11751373 0.14061 0.26726097 0.2669784 0.034955844 0.031955846 -0.032854788 -0.083465725 -0.22054902 -0.10152918 0.57133573 -0.08186859 0.06521295 -0.0044572516 -0.25338456 -0.14764944 0.0075982693 0.055905968 0.10669301 -0.0468366 0.14085127 0.011387476 -0.10921128
4 0.058468204 0.42896795 0.019999744 0.29196462 0.1256691 -0.23213221 -0.06634458 0.12915516 -0.07537589 -0.21011595 0.036080785 -0.15567583 -0.29661596 0.12235519 0.13293074 0.09491948 0.14861476 -0.15338248 -0.15840584 -0.061833065 -0.023687353 -0.113930434 -0.045632586 0.031672265 0.34613064 0.027477289 0.06660848 -0.08353677 0.09946542 0.22997382 -0.24484052 0.23356482 0.17096417 -0.12911823 0.028279776 -0.07750842 0.13072479 0.03649145 -0.268435 0.1838893 -0.11189662 -0.21889165 0.18403254 0.28140524 0.29783154 -0.009691786 0.071454175 -0.044007286 -0.17707224 -0.28393126 -0.16076031 0.61639136 -0.08649607 0.095996425 -0.032401033 -0.16391873 -0.08951433 0.007493278 0.03167451 0.1482689 -0.089692 0.1422857 -0.03798544 -0.09532732
32 -0.13070053 0.08337121 0.06279533 0.025460687 0.41805068 -0.16014619 0.028007971 0.051332735 0.18280941 -0.19331747 0.14821398 -0.2426744 0.19332854 -0.2762233 0.11409936 0.18671805 -0.012616551 -0.1451082 -0.09232655 -0.09030462 -0.16308504 -0.17600007 -0.21658766 0.10208991 -0.038436458 -0.026101435 0.10783101 -0.14535397 0.05968564 -0.1375757 0.25972113 0.3503568 0.32220224 -0.03888351 0.11295544 -0.21343844 0.2527281 0.060386293 -0.23458253 0.1562764 -0.09932989 -0.068264425 0.36726737 -0.17602552 0.24511258 0.33657107 0.0033996508 -0.17281164 -0.21500333 0.027669914 -0.29964882 0.09187404 -0.039107148 -0.12510544 -0.10173984 0.1642478 -0.18157098 0.08024065 0.007733794 -0.33880773 -0.05962678 0.08062875 -0.12441871 -0.22421241
14 0.05465983 0.24091044 0.00821631 0.2591448 0.15242204 -0.0877019 -0.058278468 0.088493764 0.114338174 -0.07323238 0.0924812 -0.081376106 -0.061894357 0.13375217 0.12438516 0.15122761 0.047629524 -0.054014806 -0.04926959 0.059872717 -0.027045913 -0.05784291 -0.020098696 -0.0065919952 0.15046313 0.031635266 0.0903972 -0.0142464945 0.1356584 0.13996404 -0.11732703 0.18206811 0.17355911 -0.08886954 0.00013981116 -0.23577666 0.20120917 0.023434771 -0.23754802 0.12479822 -0.2018254 -0.041679975 0.1700207 0.12061651 0.19836923 0.16907154 -0.05403638 -0.063402325 -0.086498454 -0.1365706 -0.108211346 0.33717212 -0.029974457 -0.034842044 -0.016690644 -0.27809718 -0.14702448 0.08304811 -0.020738153 -0.045615252 0.020561695 0.18758434 0.065469734 -0.072666004
24 -0.09946395 0.089343645 0.0008599971 -0.012383059 0.30847347 -0.02699429 -0.030900596 -0.016162775 0.37200215 -0.29432878 0.07585598 -0.101614684 0.25009954 -0.20432603 0.116520554 0.20524338 -0.034007944 -0.03966797 -0.13896093 -0.004709083 -0.23265484 -0.13057141 -0.28450304 0.009322464 -0.10470534 -0.056245964 0.14762501 -0.18668701 0.0041932203 -0.1871558 0.30517298 0.30552346 0.3137805 0.014756545 0.17391005 -0.25060686 0.2386651 0.21135116 -0.34481943 0.22027133 -0.077310726 -0.0004785586 0.31220588 -0.14333391 0.16217469 0.33336484 -0.054334372 -0.17432919 -0.099819854 0.10922304 -0.2860144 0.20038112 -0.020023577 -0.19042726 -0.04637179 0.08373081 -0.32817748 0.03171199 0.06862983 -0.41468865 0.03415225 0.109154396 -0.05834548 -0.34108332
9 0.0047549275 0.23514898 0.040654786 0.19943236 0.09597573 0.024041848 -0.116519004 0.038539317 0.31239802 -0.107718945 0.022050118 0.0075120726 0.019006614 0.16273546 0.092903145 0.23172736 -0.0239356 0.028057693 -0.07841718 0.14258996 -0.08211585 -0.059656106 -0.085839786 -0.11897893 0.050809946 0.0030055847 0.18046166 -0.10259004 0.07032961 0.08829757 0.004027262 0.20038223 0.13408038 0.0073392554 0.097512126 -0.34277335 0.19509041 0.16944964 -0.29834238 0.14264964 -0.21017647 0.022839826 0.13069336 0.12434759 0.07736233 0.23533511 -0.14720896 -0.06311558 -0.022164052 -0.05058796 -0.11089031 0.27955356 0.0365262 -0.15395562 0.045043238 -0.32524514 -0.28655806 0.051939726 -0.018333683 -0.15497515 0.16252704 0.17044911 0.11647448 -0.13513844
8 0.07133167 0.40171248 0.004686946 0.3131371 0.04683579 -0.14112316 -0.115298696 0.09475811 0.07545072 -0.14618637 0.020308454 -0.044846416 -0.24636316 0.23377112 0.115719534 0.12482708 0.10728322 -0.07118398 -0.12748979 0.066747084 -0.0024616623 -0.050289333 -0.032963637 -0.05171563 0.3193124 0.014650706 0.100622654 -0.063959904 0.10846308 0.23575021 -0.21463425 0.20700784 0.14712887 -0.0950735 0.03321726 -0.20060568 0.1696264 0.100586005 -0.3035835 0.20313992 -0.1640326 -0.14690876 0.13735211 0.29122996 0.21609396 0.023831457 -0.046817083 -0.026908664 -0.11896778 -0.23813279 -0.117462404 0.5856955 -0.05096391 0.010425211 0.020801587 -0.3016925 -0.14629318 0.010682814 0.014537135 0.11715444 0.01050869 0.19623949 0.05195488 -0.10670437
28 -0.09188191 0.14323552 0.035537545 0.023005294 0.31246248 -0.10997018 -0.028217807 0.013551996 0.24886835 -0.27727008 0.07423889 -0.16219598 0.11999105 -0.18940364 0.090471156 0.14982955 -0.0006220425 -0.09708393 -0.14896028 -0.027319644 -0.1660424 -0.12776971 -0.24851122 0.04068828 0.034380555 -0.02606496 0.1503724 -0.17838404 0.011607781 -0.09649423 0.22746845 0.2901055 0.2893288 -0.02157627 0.13712655 -0.20321918 0.23679854 0.14945258 -0.3123438 0.2223661 -0.07115439 -0.08759821 0.32755738 -0.08903136 0.24656059 0.2598208 -0.049678154 -0.13960886 -0.20947218 0.015741559 -0.27163094 0.24218825 -0.043672036 -0.11207228 -0.056386437 0.1278019 -0.24815987 0.030233068 0.05865183 -0.2740775 -0.007983643 0.0989927 -0.10358155 -0.2842791
6 0.009259057 0.1973888 0.22898318 0.46428028 0.54980356 -0.25312597 0.08884518 0.31280163 -0.14394666 0.30395576 0.40065777 -0.44409424 -0.035829064 0.06507025 0.1872994 0.24894875 0.06824302 -0.27944377 0.17666604 -0.07051007 0.08734882 -0.27489322 0.25829536 0.1397759 0.15094662 0.15750067 0.12594326 0.14312068 0.43885165 0.37732536 -0.27695128 0.31408978 0.23559083 -0.21697417 -0.24245718 -0.3052876 0.3500837 -0.479702 -0.0070229685 -0.17951898 -0.53758883 -0.03703744 0.35179567 -0.0039703683 0.43220237 0.4314256 -0.03335363 -0.10517162 -0.32492915 -0.34651595 -0.03631252 -0.12118742 0.041964546 0.012444791 -0.19641924 -0.37989762 0.11954391 0.36568707 -0.31092185 0.011842829 -0.04244777 0.2659944 0.09737989 0.3425625
7 -0.037017606 0.087031916 0.18071939 0.385141 0.5278043 -0.20149142 0.10011556 0.26773456 -0.02684992 0.34537265 0.40494058 -0.3567423 0.102350146 0.026038788 0.18362497 0.25388944 0.019771332 -0.2091322 0.20529439 0.0050709313 0.05705986 -0.22786194 0.2036742 0.12606777 0.039725658 0.13268964 0.10553671 0.13426849 0.386257 0.26360592 -0.13798308 0.31677207 0.21514422 -0.1951305 -0.18624139 -0.38695812 0.3622185 -0.41080478 -0.03167854 -0.17031956 -0.54443616 0.028588118 0.32251596 -0.0747976 0.32511178 0.49969304 -0.09480284 -0.1287979 -0.24130233 -0.22536775 -0.005673425 -0.2253212 0.045063276 -0.056001354 -0.17928542 -0.36371663 0.060346387 0.36066368 -0.2923551 -0.11511181 0.00035307463 0.26658356 0.10837025 0.30628702
31 0.057603724 0.2807486 -0.005585136 0.21805595 0.06954661 -0.0067169266 -0.12766445 0.0383154 0.28060764 -0.1903834 -0.013216721 0.009501614 -0.0410917 0.17651023 0.113142185 0.20022981 -0.0074971197 0.032594204 -0.12730129 0.14677781 -0.09354729 -0.02963515 -0.09160124 -0.13506225 0.1274056 0.027847435 0.17788468 -0.11166148 0.03787071 0.11327516 -0.045296274 0.16479461 0.12665693 -0.006071914 0.110272825 -0.30398142 0.17425345 0.19771953 -0.3514129 0.20306481 -0.15283258 -0.018536177 0.117638305 0.16908212 0.1221239 0.19168061 -0.13160747 -0.037880674 -0.015687373 -0.05065496 -0.12055373 0.44452012 -0.0023172311 -0.103587456 0.09107484 -0.33698526 -0.32019132 0.017998481 0.037285555 -0.11099644 0.122003846 0.16891599 0.09236768 -0.1795212
30 -0.043364644 0.16317648 0.030837737 0.07599293 0.18734154 0.03445363 -0.08589315 0.00287837 0.40206814 -0.2654477 0.03157485 -0.06579855 0.15498479 -0.005182866 0.09097803 0.2577618 -0.045820333 0.0022802074 -0.14336565 0.09457132 -0.18997212 -0.07866113 -0.20434237 -0.09425678 -0.02761922 0.013556585 0.2324301 -0.1661597 0.024678875 -0.046238042 0.15615386 0.23022562 0.21730831 0.030098379 0.17930426 -0.3407429 0.21475923 0.24592677 -0.37314138 0.20121819 -0.15254454 0.022541465 0.23667166 -0.008136442 0.11805829 0.3217138 -0.117210284 -0.098273575 -0.10331881 0.06109497 -0.22162466 0.2579503 0.035907134 -0.19989602 0.037345413 -0.13140197 -0.34879404 0.024319893 0.042021956 -0.3109607 0.15626809 0.12972717 0.044037744 -0.26513344
25 -0.18033561 0.081523195 0.07790597 -0.0140729295 0.49148813 -0.20228472 0.047685765 0.031540386 0.23465337 -0.28316477 0.13915445 -0.28232357 0.21436551 -0.37335104 0.11573369 0.21913096 -0.017178778 -0.16884081 -0.13742946 -0.13666487 -0.21491294 -0.22030143 -0.30492714 0.11505802 -0.07064724 -0.043052353 0.12403381 -0.21959503 0.011922992 -0.20051049 0.3380285 0.42874128 0.38236445 -0.017052924 0.18202554 -0.22507754 0.23755716 0.12339161 -0.26703638 0.18075813 -0.061474957 -0.09108734 0.43513024 -0.1952936 0.27361956 0.36587945 0.037007667 -0.21228057 -0.2647448 0.06842781 -0.4055884 0.109576024 -0.034632057 -0.136104 -0.09481022 0.24770626 -0.23534408 0.06847128 0.037758112 -0.40879485 -0.058744024 0.058511455 -0.17821394 -0.30506325
29 -0.009504635 0.21859314 -0.005051757 0.13253309 0.20946096 -0.085966244 -0.03998347 0.05494467 0.1762669 -0.1841101 0.08417944 -0.096305005 0.032205306 -0.020696335 0.12784898 0.1692666 0.029389737 -0.083315834 -0.12332837 0.0020006434 -0.12132311 -0.11103425 -0.11737637 0.02468066 0.07458634 -0.013247955 0.10350105 -0.10565228 0.045471907 0.021951875 0.043470822 0.24771674 0.24172582 -0.05127494 0.0922357 -0.20513394 0.20459445 0.11596115 -0.25797078 0.15517521 -0.12776382 -0.064286165 0.22307853 0.03769039 0.18997753 0.1842039 -0.0070703086 -0.114020035 -0.089775726 -0.06383082 -0.19227847 0.32757837 -0.04388892 -0.0708364 -0.043223273 -0.08211914 -0.19524321 0.041918017 0.029330848 -0.17430533 -0.01675948 0.14441484 -0.008994407 -0.1906151
5 0.028152317 0.22602864 0.16533276 0.47533816 0.40027675 -0.25718027 0.056639276 0.2726655 -0.14630054 0.279108 0.3313601 -0.33486912 -0.13031918 0.14908192 0.17753795 0.20431611 0.09378633 -0.22678389 0.15676789 -0.046545837 0.09482686 -0.20057936 0.21234982 0.116024725 0.19651209 0.11923746 0.053380024 0.16043037 0.40727627 0.35550416 -0.3388292 0.2798963 0.18500753 -0.21809365 -0.21737011 -0.26378912 0.28907692 -0.3858012 -0.045321953 -0.11970783 -0.4719888 -0.042587772 0.26339138 0.09465407 0.34618455 0.298253 -0.011763889 -0.08834632 -0.24435626 -0.33653876 -0.024179367 0.036903597 -0.0024057254 0.037961688 -0.15328935 -0.4138125 0.12902713 0.28493422 -0.23986028 0.10513456 -0.033878174 0.25605357 0.10608585 0.2906718
11 0.036450792 0.17532712 0.1327377 0.46657294 0.40318274 -0.21450035 0.06832755 0.28416523 -0.10946081 0.3331283 0.36081925 -0.30307433 -0.064777315 0.17638145 0.18965827 0.184463 0.07549121 -0.19306345 0.20862277 0.024781197 0.08987763 -0.15554464 0.23940864 0.09575857 0.17806242 0.12119285 0.07006046 0.19039117 0.4290003 0.34800193 -0.32428345 0.25166658 0.17661873 -0.23946291 -0.25371465 -0.33153886 0.31614947 -0.41116557 -0.06778213 -0.13001959 -0.519871 0.0035235968 0.25140902 0.070555486 0.32051164 0.3590147 -0.07390146 -0.07698838 -0.19698915 -0.31017008 0.04568641 -0.011946139 0.010180333 0.0093714865 -0.16087784 -0.47082517 0.09842456 0.33081466 -0.2512039 0.048628606 -0.008140391 0.30090103 0.14333647 0.3159689
26 -0.20331995 0.06680849 0.09446377 -0.055750888 0.50683296 -0.1997911 0.06178683 0.040965684 0.21847562 -0.2763524 0.16186829 -0.30498707 0.2521229 -0.4132742 0.09674428 0.17525005 -0.006353401 -0.18052624 -0.14304863 -0.1551589 -0.21456878 -0.23084535 -0.30549714 0.14581238 -0.05841165 -0.049473934 0.14301278 -0.20904891 0.027422132 -0.22024505 0.37326545 0.42236078 0.40055695 -0.03174998 0.15548295 -0.20694928 0.27396417 0.076005936 -0.25562352 0.1863969 -0.065999255 -0.11690459 0.4718982 -0.26154745 0.30745524 0.359915 0.017555563 -0.21058859 -0.3211926 0.04358375 -0.3913923 0.052603766 -0.042337853 -0.12462469 -0.15562142 0.34786287 -0.20319392 0.08812563 0.03444745 -0.42064437 -0.07583024 0.05953854 -0.20649546 -0.303229
20 0.03466536 0.2920079 0.019536356 0.23164347 0.12699768 -0.095639564 -0.073666364 0.086457476 0.112032585 -0.15649953 0.058358252 -0.09939116 -0.11018265 0.117140934 0.10806511 0.15330932 0.0565521 -0.08334268 -0.115456104 0.033307545 -0.065539196 -0.08796853 -0.07069715 -0.024221925 0.18598719 0.02158034 0.13146552 -0.06927953 0.104877464 0.14756604 -0.099565096 0.20223829 0.17833926 -0.07177418 0.04037047 -0.20155218 0.18172698 0.08447793 -0.26349193 0.15965891 -0.1470421 -0.09030605 0.17994455 0.15724176 0.20964058 0.124909885 -0.039157525 -0.049542427 -0.13295233 -0.15129213 -0.15086938 0.42051908 -0.018058885 -0.025557213 -0.011788812 -0.1982907 -0.1606044 0.034730203 0.0015725902 -0.024786852 0.024561154 0.15707898 0.03749916 -0.11380704
13 0.047859672 0.3801864 0.040794387 0.30740407 0.10582468 -0.1967812 -0.07240251 0.11261815 -0.02895759 -0.14012787 0.04255982 -0.12821707 -0.2657352 0.15433773 0.11037082 0.103157476 0.12531072 -0.11708585 -0.108610444 -0.020775735 -0.012469031 -0.081962936 -0.031511433 0.0016304161 0.30377716 0.013349098 0.06726122 -0.045003027 0.15576911 0.22609033 -0.23937358 0.22540745 0.15851943 -0.11766291 -0.0016089776 -0.13818112 0.14534071 0.028666351 -0.26346236 0.17742023 -0.13917194 -0.1561104 0.1622989 0.25813404 0.25391427 0.021020975 0.018859528 -0.036825202 -0.16648704 -0.25373432 -0.15194431 0.5375898 -0.05002519 0.052589916 -0.028293367 -0.22452623 -0.08021583 0.024241531 0.015361514 0.13430317 -0.03878311 0.15503366 0.013158054 -0.078842916
18 0.059213214 0.33535177 0.037350014 0.3022201 0.18014479 -0.1958082 -0.04727727 0.13897187 -0.029077271 -0.1183071 0.07786037 -0.16494413 -0.2172604 0.12206501 0.12520143 0.09529005 0.11006337 -0.14007403 -0.06977363 -0.019101616 -0.0017266389 -0.107184075 -0.0022555108 0.017110182 0.2929412 0.026904482 0.10203706 -0.02884886 0.1596134 0.22929934 -0.2102892 0.21343976 0.1815869 -0.12170447 -0.031565957 -0.13142963 0.17456754 -0.02920617 -0.23871668 0.14880964 -0.15556225 -0.1531715 0.19216977 0.21303514 0.28659794 0.07146036 -0.0075370334 -0.03903823 -0.17960407 -0.23848766 -0.12954268 0.47735193 -0.05760758 0.050364953 -0.03978418 -0.20680825 -0.08664121 0.0641151 -0.0012693859 0.08504482 -0.049871393 0.16976455 -0.0068659307 -0.048563406
22 0.04777017 0.33762848 0.07429278 0.30587423 0.20623648 -0.2193494 -0.030940117 0.14725865 -0.055207424 -0.10594928 0.09239281 -0.21099402 -0.22912881 0.09595907 0.10535212 0.10753422 0.1026853 -0.16773474 -0.06752673 -0.036428113 -0.0047886907 -0.13105407 0.007247331 0.019300591 0.29444933 0.044302516 0.11977332 -0.02655116 0.1742614 0.24702905 -0.21171042 0.22758219 0.17641838 -0.122296415 -0.046036318 -0.12885126 0.17476743 -0.066627204 -0.20336787 0.11017349 -0.17622285 -0.16192701 0.21834707 0.19014002 0.31822476 0.08556042 -0.004530033 -0.026461868 -0.22941132 -0.2533052 -0.13461868 0.41647944 -0.036972232 0.054453205 -0.045647427 -0.1767319 -0.057218727 0.08168951 -0.023618383 0.10098142 -0.045159988 0.14908583 -0.012524686 -0.020546017
17 0.030340105 0.089564614 0.19535276 0.50660676 0.5561804 -0.14937046 0.104728214 0.3326075 -0.0386953 0.4953852 0.47957453 -0.3723877 0.09178696 0.18462707 0.20960057 0.30124497 -0.00469416 -0.19547878 0.31247908 0.05602008 0.10072428 -0.22541371 0.34744972 0.08884262 0.046962228 0.16794083 0.12343312 0.24292062 0.49489814 0.39143613 -0.26643494 0.28318232 0.20093742 -0.23324221 -0.28755245 -0.4497943 0.42632073 -0.53278446 0.003962554 -0.25318018 -0.6937026 0.1189701 0.30022737 -0.02639493 0.34182015 0.57585424 -0.14254831 -0.12584887 -0.18151906 -0.2752313 0.096530326 -0.28855446 0.08074912 -0.08974948 -0.1775702 -0.6040553 0.087461896 0.4533898 -0.38609543 -0.0756752 0.04791082 0.35146692 0.23018481 0.43463162
23 -0.008427304 0.20593157 0.0052369977 0.114759944 0.15087257 0.028223881 -0.11525972 0.013609804 0.38715598 -0.25781626 -0.013242521 -0.012649018 0.092798606 0.06630944 0.09911781 0.229984 -0.05969921 0.034741387 -0.14193045 0.12066459 -0.16579202 -0.047482878 -0.1830413 -0.12610157 0.021097116 0.0019573022 0.21512297 -0.16456497 -0.010205198 -0.0045112367 0.117211744 0.19966006 0.18105315 0.029151512 0.16855054 -0.33959654 0.1898367 0.2544957 -0.37054273 0.21223827 -0.12498207 0.01819645 0.18688913 0.06968136 0.10645748 0.2590497 -0.12882283 -0.07768491 -0.046507917 0.04059654 -0.1957426 0.33780715 0.019469315 -0.1785945 0.07748594 -0.2100819 -0.3825626 0.018502504 0.06344382 -0.25808215 0.13800897 0.1341004 0.05388251 -0.25606182
10 0.03728887 0.2982018 -0.015625793 0.16540273 0.013315813 0.011302543 -0.15321642 -0.0082362015 0.32309008 -0.27278078 -0.039570432 0.052216925 -0.04946979 0.14989379 0.08857712 0.19904149 0.019974971 0.024395946 -0.19660942 0.12758926 -0.11363331 -0.026118467 -0.15631464 -0.119929716 0.121742986 0.0039597843 0.18169922 -0.16680835 -0.0063440925 0.06706191 -0.003917161 0.17337324 0.15306751 0.024225757 0.15659596 -0.27685505 0.15954548 0.2832448 -0.37853947 0.258723 -0.098496415 -0.05320673 0.1238725 0.16086449 0.11039873 0.1471653 -0.11313037 -0.046306267 -0.03617883 -0.043403238 -0.17497326 0.5000185 0.0051231775 -0.099421754 0.08168761 -0.2487078 -0.330643 -0.03451978 0.07179368 -0.12512754 0.13275805 0.14907472 0.057887726 -0.25040358
15 0.006848595 0.16881426 -0.015585267 0.13361321 0.14384367 0.08684531 -0.11194946 0.0015919295 0.45541638 -0.18924461 0.028870435 0.042138558 0.15717244 0.10458706 0.11472646 0.27105448 -0.08153319 0.067953095 -0.10558973 0.1752325 -0.1634196 -0.035231862 -0.15813589 -0.13427334 -0.032404583 0.0048316647 0.20964324 -0.12820119 0.013078424 -0.017735938 0.13046607 0.20005476 0.19015048 0.03286782 0.16099219 -0.41200197 0.23923172 0.24948259 -0.3698867 0.1897007 -0.19803892 0.08076788 0.17664482 0.0329032 0.05847497 0.32564536 -0.17080884 -0.10093168 0.028402548 0.07327539 -0.14910077 0.2723371 0.026606657 -0.22758232 0.079388835 -0.30773675 -0.40356252 0.050136764 0.027611755 -0.3089336 0.1698062 0.18778673 0.11909616 -0.24129166
19 -0.011926065 0.1728307 5.663981e-05 0.1222933 0.14369808 0.054059494 -0.123141296 0.0060169143 0.43773615 -0.18945996 0.0041166516 0.02852919 0.13670942 0.076670505 0.10371506 0.25981003 -0.08382764 0.06718545 -0.13392347 0.15541099 -0.1511069 -0.038496412 -0.17764436 -0.12728184 -0.033348527 0.016568972 0.20712078 -0.15112515 0.0010730724 -0.025221704 0.1426734 0.2167004 0.16026933 0.053280823 0.1795558 -0.41104168 0.19748935 0.26141196 -0.3548688 0.19518287 -0.18300667 0.05274734 0.1564866 0.034715887 0.044975504 0.31114033 -0.160227 -0.091634214 -0.019252285 0.05358753 -0.1801407 0.2629446 0.034437843 -0.21714534 0.08665853 -0.2686469 -0.38290936 0.034754574 0.04072597 -0.2908187 0.17911467 0.1393067 0.098001696 -0.2256958
16 -0.0072056353 0.11576509 -0.006739115 0.08332418 0.15862311 0.110890284 -0.10279609 -0.012821468 0.4764469 -0.17363626 0.033149034 0.028237868 0.20559712 0.075030506 0.10697485 0.26696762 -0.10206029 0.0762581 -0.09313186 0.18634972 -0.18347938 -0.03253501 -0.15392412 -0.14415024 -0.07718938 0.019606324 0.22837482 -0.13535105 0.01126794 -0.043461993 0.17226301 0.17915894 0.17600262 0.04847101 0.16007175 -0.41552484 0.22811502 0.24228862 -0.35277334 0.17394692 -0.19369477 0.08948378 0.1742212 -0.01278201 0.046795227 0.36643553 -0.20172776 -0.09761276 0.014116935 0.116658136 -0.13455592 0.18304342 0.05428157 -0.2505396 0.08558621 -0.26750013 -0.40445998 0.058413424 0.010499983 -0.35858402 0.20184042 0.16265616 0.108959086 -0.22935551
21 0.04238509 0.1887718 -0.035912808 0.12902875 0.078267224 0.11814507 -0.13778399 -0.0060290443 0.43265933 -0.23199454 -0.022566892 0.064881496 0.123871066 0.15302756 0.11149941 0.24991958 -0.078106225 0.0984417 -0.11930039 0.19950579 -0.1699582 -0.029722843 -0.14819826 -0.15993206 -0.023805067 0.03066036 0.21990308 -0.13957134 0.002185168 0.022493621 0.07064208 0.1451205 0.14697964 0.041067384 0.1548816 -0.35261 0.19022295 0.25829482 -0.38448426 0.19934729 -0.16968293 0.071004584 0.116905496 0.08254787 0.060306005 0.30308747 -0.18801965 -0.07140735 0.058248725 0.06893322 -0.10557596 0.3385253 0.037955802 -0.2013087 0.09023784 -0.32491165 -0.40663323 0.015125134 0.04641095 -0.26792097 0.18999557 0.15423158 0.12341842 -0.24455543
27 0.018562583 0.19402727 -0.038988538 0.09854193 0.08452157 0.09135204 -0.12979312 -0.018339224 0.46466517 -0.2739634 -0.007806021 0.05620591 0.12479792 0.10493732 0.10644871 0.22541153 -0.04767284 0.05820374 -0.14798614 0.16626415 -0.20011917 -0.0210959 -0.21407644 -0.14494479 0.005749857 0.0018491222 0.22402336 -0.15290478 -0.0028355962 -0.014665792 0.122542165 0.17136765 0.17848273 0.03862232 0.18804239 -0.35446241 0.21143527 0.3119197 -0.41220516 0.23195393 -0.14710727 0.047405086 0.15715232 0.07666771 0.07091566 0.26226038 -0.1505559 -0.07615932 -0.010968707 0.06194119 -0.16639706 0.37371793 0.012235952 -0.20946261 0.07379336 -0.22628379 -0.4100676 -0.013691727 0.07817298 -0.27264422 0.18666452 0.17689034 0.09992482 -0.29395285
12 0.03575194 0.28766978 0.08653866 0.36656368 0.23211178 -0.25244048 0.01712764 0.18719205 -0.14343257 0.059543423 0.17655218 -0.2286176 -0.21811287 0.11595244 0.13179593 0.10750937 0.12738134 -0.18958771 0.00954146 -0.06039106 0.036620207 -0.12341665 0.07982084 0.08076404 0.27217114 0.054395866 0.038025238 0.06498124 0.26239365 0.2750937 -0.29522353 0.2261039 0.16051914 -0.17687653 -0.12130275 -0.15849742 0.18440604 -0.19198026 -0.13181527 0.026696015 -0.25690594 -0.121829495 0.21207881 0.16273502 0.30575642 0.1051642 0.029474417 -0.055764392 -0.21345173 -0.28667524 -0.08871661 0.29539752 -0.053478695 0.07665803 -0.10183978 -0.24020396 0.05250189 0.14025311 -0.08661403 0.14503089 -0.0653315 0.18400915 0.024320582 0.09321561
