34 64
1 0.18957536 0.063925505 -0.13874283 0.00037266343 0.23763703 0.119287394 0.060604874 -0.011819538 0.060287613 -0.0009947036 0.16598566 0.15918389 -0.17569225 0.14089788 -0.13608024 -0.038965095 -0.30824783 -0.16652681 -0.04582009 0.03584671 0.15855545 -0.20925246 0.32718125 0.1199561 -0.05407178 0.26924437 -0.03819797 0.069977514 0.13286509 0.13354808 0.060289342 -0.21006678 0.29531786 0.049455494 0.14169298 -0.09526791 0.104583986 0.11460582 -0.13284014 0.07109951 -0.17990917 0.24967326 -0.0671393 -0.39936438 0.12904875 -0.08526882 0.06854819 0.06425848 -0.12301444 0.22458914 0.0693614 -0.047334522 0.04785629 0.15000395 -0.17776649 -0.10219881 0.281442 -0.018009776 -0.28144237 0.04712917 -0.28881118 -0.009359681 -0.08224382 -0.019046852
34 0.20713674 -0.028910657 0.11255142 0.14858814 0.26273692 0.2502487 -0.11356672 0.24340782 -0.058471564 -0.29912287 -0.08193964 -0.13222617 -0.17322922 -0.24461666 -0.05881097 0.048508253 -0.0738219 -0.27470273 0.025987796 0.18515334 0.14642291 -0.094000846 0.15282664 0.08782934 0.059948295 0.14410277 0.10190752 0.06676351 -0.035196625 -0.15996088 -0.22162777 0.21577418 0.33999005 0.08494169 -0.14938067 -0.11472942 0.0497185 -0.035315346 -0.10030287 0.26918054 -0.094621114 0.3233902 -0.40386724 -0.10289935 0.05622157 -0.103972025 0.034898195 0.13394694 -0.13215077 -0.040171154 0.29076383 -0.2837856 -0.16175336 -0.08801154 0.07201951 -0.12586418 0.08620835 -0.23170635 0.013091822 0.29900715 -0.03458996 0.05509679 -0.17765318 0.07862998
33 0.23774892 -0.08350292 0.17205791 0.20286602 0.2229635 0.2508097 -0.066277 0.3666463 -0.30632943 -0.2704047 -0.019027159 -0.1745095 -0.16665512 -0.25721473 -0.022149017 -0.041233845 0.022319987 -0.41700885 0.09461533 0.21836242 0.14424887 -0.03892005 0.19743775 0.10866629 0.10116746 0.025233893 0.14116794 0.1630932 0.032359995 -0.17496459 -0.25975722 0.112639375 0.33189753 0.06098986 -0.07384039 -0.14757162 0.005789093 -0.07617482 -0.07548531 0.18100992 -0.09695063 0.25290903 -0.44801995 -0.12328581 -0.027461503 -0.16167085 -0.040863007 0.12275537 -0.09796869 -0.18693426 0.2973049 -0.22901845 -0.09246193 -0.11329134 0.09380848 -0.15417555 -0.033642143 -0.3328657 0.051261365 0.30716553 -0.013277448 0.032007832 -0.184291 0.02808825
3 0.21495798 0.062441833 -0.009131878 0.11596588 0.2679797 0.18717614 0.017229928 0.19668946 -0.07591631 -0.21600343 0.06001132 0.013987316 -0.22702758 -0.003432093 -0.15315987 -0.017004935 -0.081526324 -0.3681791 0.0002230494 0.15577485 0.22950771 -0.09217913 0.22924767 0.02395006 0.075410925 0.1729566 0.0044294447 0.15492819 0.13165455 0.046586305 -0.08977704 -0.17816202 0.26267123 0.025942752 0.09039981 -0.09333937 0.06575942 0.07201844 -0.16482477 0.10195886 -0.13546385 0.23504545 -0.3374193 -0.28913155 0.06311855 -0.017732216 0.14900936 0.010127211 -0.1944663 -0.016625874 0.11997836 -0.1513903 0.0028408035 0.05132047 -0.11064756 -0.029245464 0.10971219 -0.04308145 -0.08040341 0.14382248 -0.18109606 0.09560361 -0.08898276 -0.04557363
2 0.18397997 0.048253614 -0.04044674 0.1176249 0.23018841 0.17168742 0.039860707 0.15674163 -0.14944285 -0.12580685 0.15970257 0.093345284 -0.19549793 0.1097382 -0.127766 -0.10412899 -0.14973071 -0.3602464 0.006365251 0.13477543 0.26768154 -0.13129246 0.30065766 0.10798619 0.11238332 0.18756934 -0.04470508 0.21336049 0.2201289 0.13614862 -0.03348617 -0.30868253 0.25217783 -0.022456061 0.18428302 -0.06599432 0.064743556 0.11201736 -0.17370915 0.016339028 -0.17260545 0.22726206 -0.23658757 -0.3607074 0.054237954 -0.029659877 0.13214992 -0.0586486 -0.17679423 -0.018646836 0.069532484 -0.03972833 0.1006344 0.15876147 -0.15517572 -0.04077228 0.1747237 -0.011244633 -0.15120791 0.030461803 -0.24231514 0.058756508 -0.042829644 -0.07212588
4 0.20821327 0.10905964 -0.10079662 0.074582905 0.31086108 0.15181343 0.047984924 0.12386422 -0.018068785 -0.1475412 0.14946452 0.13675041 -0.24594648 0.14627597 -0.18835132 -0.06534515 -0.18797451 -0.3526446 -0.065209195 0.12796214 0.29814875 -0.16402212 0.2930969 0.05912675 0.09550397 0.24553345 -0.06656496 0.20047359 0.22538231 0.18743162 0.0054792357 -0.3438474 0.2558828 0.009863749 0.20476612 -0.07334923 0.11562669 0.14225172 -0.21128836 0.041721217 -0.20042023 0.25772458 -0.24932164 -0.41223443 0.08859017 0.012274977 0.22336115 -0.04601253 -0.2499551 0.07004473 0.04459046 -0.083964385 0.08910193 0.16130117 -0.22988081 0.00031617336 0.2179535 0.068975784 -0.18955687 0.024203032 -0.3001934 0.10044942 -0.048243992 -0.07243468
32 0.10927464 -0.048133276 -0.02205078 0.060850456 0.3223347 0.17099145 -0.28580746 -0.02614884 0.3367459 -0.19494998 -0.0062171514 -0.08287756 -0.012775525 -0.18162344 -0.020084241 0.08860363 -0.18850292 0.02016026 -0.124707095 0.124488495 0.18592203 -0.30480045 0.15572786 0.110605605 0.12934378 0.31349167 0.019190956 -0.031711515 -0.14847478 -0.075747184 -0.08869085 0.37577602 0.16210102 0.06433047 -0.10746591 -0.09368028 0.20722823 -0.02728074 -0.05024347 0.31968608 -0.09160263 0.50045913 -0.24936882 0.04750682 0.23100615 -0.033776946 0.0007478585 0.1043397 -0.07605232 0.33876252 0.29700685 -0.24296243 -0.19602138 -0.08509813 -0.012432302 -0.07335066 0.34005642 -0.009264555 -0.13788684 0.14126687 -0.026429374 0.044027224 -0.047198217 0.21746741
14 0.18913516 -0.037862394 -0.020969147 0.07949769 0.23748122 0.15483081 0.008209833 0.14259216 -0.10365964 -0.07881006 0.12879975 -0.011190689 -0.1387526 0.0029817338 -0.07442091 -0.05432764 -0.14088939 -0.27488664 0.010191912 0.094838224 0.14808378 -0.15183479 0.3053342 0.104245536 0.015266371 0.14252305 0.050193742 0.11758137 0.11600324 -0.026379015 -0.045484487 -0.14167927 0.2724856 0.03722561 0.1016715 -0.115751095 0.044531733 0.012009841 -0.08392818 0.086804815 -0.12759922 0.23197086 -0.22154802 -0.27649668 0.07420525 -0.123088464 -0.032672245 0.08747298 -0.080672264 0.0832765 0.1552756 -0.083783105 0.012316729 0.021224314 -0.07599375 -0.103284106 0.14732282 -0.15058082 -0.16458435 0.15036461 -0.14748985 0.0071249935 -0.13688791 -0.010871492
24 0.12097172 -0.046939988 0.10412434 0.14535737 0.3173348 0.25642383 -0.3366574 0.12872425 0.16514662 -0.30931386 -0.042154785 -0.15407474 -0.058987875 -0.3106915 0.0036573873 0.09896041 -0.07793044 -0.09180058 -0.0759742 0.19882375 0.22447227 -0.2442131 0.11419324 0.13227227 0.21136205 0.23298876 0.08369275 0.020735733 -0.14270823 -0.15006407 -0.19756418 0.4491519 0.17007793 0.025672207 -0.14416854 -0.07355274 0.20402658 -0.08147398 -0.031190133 0.3221603 -0.05604233 0.5160206 -0.39466754 0.12879075 0.1557368 -0.025562441 0.0090871295 0.08391244 -0.112783134 0.12200251 0.34071955 -0.28506604 -0.22056751 -0.10088366 0.07707353 -0.05772596 0.21982957 -0.1164423 -0.043359354 0.23556145 0.06714973 0.09528175 -0.07569276 0.20470852
9 0.21067527 -0.040231455 0.0805543 0.124245 0.2049054 0.20860349 -0.026519746 0.24983494 -0.19824064 -0.18774179 0.0076870024 -0.090179995 -0.18002562 -0.14478436 -0.049287204 -0.024430053 -0.07800469 -0.31439063 0.07480016 0.13362308 0.103624634 -0.081191145 0.24107791 0.10799843 0.014817459 0.07878126 0.095279634 0.09843601 0.05465419 -0.12251274 -0.16093966 0.036003787 0.34299397 0.06668532 -0.037174135 -0.1281753 0.021112911 -0.029540587 -0.09087431 0.16197184 -0.09889423 0.22912133 -0.31757867 -0.20158662 0.0064509194 -0.16239965 -0.035480198 0.120889544 -0.079938054 -0.059377868 0.23099458 -0.18665366 -0.073100135 -0.030109333 0.060544934 -0.15159562 0.049577754 -0.27683687 -0.045378886 0.26803967 -0.0833783 0.0005197902 -0.17216375 0.014861315
8 0.25003856 0.051084436 -0.021926478 0.091567144 0.2850456 0.17992613 0.08894975 0.23994246 -0.15358315 -0.13690978 0.13575538 0.07369396 -0.27381632 0.0779679 -0.17306206 -0.066206396 -0.11996211 -0.41998413 0.0048028585 0.14689156 0.2456675 -0.09789111 0.29883412 0.043930504 0.047269937 0.17952846 -0.0070163724 0.19855954 0.22245866 0.061089978 -0.038980503 -0.33504364 0.3008517 0.023872305 0.16494891 -0.12504767 0.04298641 0.08157631 -0.1642488 0.023785952 -0.18351068 0.22210647 -0.31067023 -0.4240864 0.058720138 -0.030512046 0.13774021 0.046005297 -0.19815566 -0.039792106 0.11166647 -0.09686659 0.09884661 0.095901035 -0.14677466 -0.054165713 0.10834383 -0.073736385 -0.13439694 0.12905855 -0.24290495 0.08153956 -0.12492058 -0.1021458
28 0.1317067 -0.021838505 0.04203557 0.08894819 0.31126833 0.2187084 -0.24917367 0.082300946 0.22488211 -0.25146034 -0.014349758 -0.068024725 -0.080089666 -0.18107727 -0.04495876 0.0761376 -0.12552209 -0.10030787 -0.117899016 0.18905479 0.246635 -0.2335501 0.11922082 0.08524384 0.18797345 0.29367834 0.022634484 0.030265253 -0.09131963 -0.060820874 -0.15041253 0.30440357 0.17802994 0.049059454 -0.1162014 -0.084582195 0.19279607 -0.014319376 -0.06716713 0.26884747 -0.10518662 0.49729374 -0.34056127 -0.0046685725 0.18831022 0.018070936 0.100717835 0.09214077 -0.1271166 0.16439937 0.30434522 -0.25242049 -0.16119689 -0.06757256 -0.014381062 -0.056061585 0.25580528 -0.013501852 -0.08130892 0.15130226 -0.040671457 0.1087519 -0.057607323 0.15120578
6 0.23094703 -0.11937896 -0.32928854 -0.07298469 0.23649336 -0.018939387 0.15282689 -0.22504686 0.06780111 0.3176552 0.3001058 0.09751396 0.0071950043 0.21339826 -0.033021074 -0.17474674 -0.54691964 -0.019902417 -0.0072847763 -0.12289812 -0.06439703 -0.36453456 0.6469575 0.29107314 -0.30057508 0.28108647 0.060248844 -0.04113383 0.065729186 0.056352045 0.1366415 -0.18196523 0.45201617 0.1731714 0.17311949 -0.26194638 0.02898018 -0.0025113155 -0.08286744 0.10178052 -0.2800523 0.20106018 0.25749236 -0.51888686 0.16146074 -0.46889052 -0.33484775 0.22807969 0.12730858 0.67931443 0.0885081 0.046732914 -0.022179898 0.011156495 -0.24710926 -0.36703777 0.42815065 -0.26270518 -0.58493567 0.09602746 -0.35350868 -0.29670528 -0.20310724 0.07300431
7 0.1928424 -0.18036495 -0.27237794 -0.04462226 0.20774893 -0.003807125 0.10093441 -0.18422365 0.069857754 0.2595275 0.24015233 0.0044508995 0.056044556 0.10796708 0.006839364 -0.12047226 -0.45398265 0.016018225 0.014250283 -0.107480496 -0.11753192 -0.33995256 0.59151113 0.2535709 -0.30292138 0.23041962 0.119124606 -0.09262063 -0.024199098 -0.06477648 0.096363895 -0.04015166 0.41804403 0.16575009 0.09215627 -0.25528103 -0.0064766477 -0.089809075 -0.026119703 0.15343653 -0.2062731 0.19899464 0.20091346 -0.38125047 0.16957402 -0.47517726 -0.42730755 0.28488347 0.19438621 0.6519268 0.13809074 0.006272308 -0.07709863 -0.074690625 -0.15799955 -0.36122498 0.36862412 -0.3254794 -0.5123124 0.17397043 -0.23184992 -0.29087797 -0.23475337 0.124870434
31 0.20426674 -0.030987244 0.11947838 0.15475498 0.23002562 0.25082344 -0.019814651 0.2840985 -0.2509016 -0.2298212 0.028748775 -0.06975884 -0.19174361 -0.099328786 -0.06968483 -0.037201066 -0.0713765 -0.40758878 0.06901629 0.18036251 0.19821806 -0.0677097 0.23992917 0.09580001 0.086835444 0.11680876 0.07737757 0.16910888 0.1024847 -0.090391375 -0.1696032 -0.0317965 0.34667563 0.03399786 0.00017962698 -0.08301555 0.0061307014 0.032359157 -0.11876231 0.14635162 -0.09132933 0.24344179 -0.378682 -0.23245257 0.013081763 -0.11704734 0.04272547 0.06422332 -0.12664555 -0.123980306 0.21431147 -0.16958901 -0.018066319 0.014918233 0.022770481 -0.121402696 0.068255745 -0.20310229 -0.018949514 0.21321608 -0.10155105 0.044613857 -0.14734046 -0.011204568
30 0.19304104 -0.019682208 0.13269696 0.15971465 0.23946476 0.28553897 -0.18884261 0.20104212 -0.0681667 -0.2846725 -0.04677724 -0.13843845 -0.117494345 -0.27416378 -0.01528574 0.040909674 -0.11025766 -0.23957899 0.014718185 0.19839539 0.19447157 -0.12944598 0.14866175 0.15601097 0.117623694 0.16797215 0.10973047 0.07130224 -0.059601568 -0.14140847 -0.24417621 0.30477458 0.3344208 0.0446426 -0.14543106 -0.06739553 0.110084206 -0.032750312 -0.06377893 0.29849344 -0.075123966 0.38822624 -0.3850251 -0.03629956 0.057833362 -0.10277186 0.03140704 0.09863063 -0.109920695 -0.024654118 0.32906792 -0.2525411 -0.20137651 -0.055787917 0.093348876 -0.13532831 0.12999378 -0.21774244 -0.02963535 0.26581445 -0.017501866 0.0452959 -0.1439516 0.08425438
25 0.109386675 -0.01212219 0.012250384 0.06765284 0.36084875 0.22559093 -0.36766347 -0.058458503 0.42110622 -0.27825508 -0.04608833 -0.09043595 -0.02509733 -0.24606666 -0.0027486535 0.15531066 -0.21720901 0.034620102 -0.14721721 0.1472761 0.25016695 -0.34904507 0.12329837 0.13083056 0.18734449 0.3926981 0.008535328 -0.036700856 -0.18259959 -0.06596812 -0.121970035 0.51518714 0.18301961 0.038264714 -0.15068114 -0.048787445 0.2643213 0.00047413615 -0.04410382 0.40795162 -0.08653493 0.6066296 -0.31930858 0.10751446 0.2600672 0.002285719 0.06231705 0.08514258 -0.13334286 0.36276183 0.33950463 -0.29683205 -0.27165684 -0.056218002 0.024326583 -0.071265444 0.39923164 0.027885659 -0.12967955 0.14210778 -0.020403778 0.07790081 -0.021046368 0.26860857
29 0.16939321 -0.005740258 -0.016381014 0.10514304 0.30560577 0.17778952 -0.13641098 0.11789418 0.05028338 -0.19986513 0.032793377 -0.06951919 -0.101707876 -0.1087722 -0.060795024 0.014123566 -0.10773351 -0.20479801 -0.06390571 0.12587154 0.20814545 -0.1929462 0.22050062 0.094091885 0.11632381 0.19132121 0.0369191 0.095505804 0.027225696 -0.03205994 -0.105741076 0.047906253 0.19582985 0.015805138 0.0394527 -0.09337518 0.12455272 -0.019698644 -0.09455274 0.1729861 -0.12307568 0.33393717 -0.30454743 -0.109885186 0.09690982 -0.04426348 0.028352194 0.04639913 -0.14361574 0.12698258 0.19352432 -0.1801575 -0.09464239 -0.030010505 -0.0447335 -0.045121808 0.17909756 -0.075298704 -0.11210588 0.15394199 -0.081553526 0.059531685 -0.100886315 0.07282038
5 0.2385036 -0.0818436 -0.2871651 -0.06228519 0.21177626 0.014592647 0.1802319 -0.1358601 -0.013032354 0.2654324 0.3128216 0.121285744 -0.07524623 0.23104657 -0.07406398 -0.16668917 -0.4424014 -0.114882365 0.004323048 -0.092410415 -0.02745464 -0.29923883 0.5903342 0.21271873 -0.2623794 0.21211395 0.039674286 0.003101677 0.12235133 0.07032124 0.1698185 -0.3208116 0.40149865 0.12732495 0.24463597 -0.20864812 0.02799075 -0.007683737 -0.07941713 0.027032346 -0.24467565 0.14557424 0.17822693 -0.5281326 0.13601936 -0.36846474 -0.2749988 0.18974026 0.080442764 0.5188508 0.048326686 0.05652082 0.051571466 0.06189916 -0.23626967 -0.27332166 0.33475158 -0.22223286 -0.51878417 0.101018645 -0.31689268 -0.2191138 -0.17537153 0.0021807293
11 0.23945946 -0.15171196 -0.2760815 -0.032713853 0.21112093 0.00019509596 0.1913643 -0.082809284 -0.07985214 0.2864732 0.3216066 0.07801031 -0.01889187 0.20064722 -0.040738214 -0.19419262 -0.40925333 -0.1125022 0.039093185 -0.09262653 -0.07568867 -0.2963955 0.62230235 0.22938363 -0.2944366 0.19049709 0.08191118 -0.015725555 0.09014187 0.009671193 0.15496877 -0.3060057 0.3987838 0.14295837 0.23160616 -0.2552037 -0.024159819 -0.043843526 -0.05179683 0.019138645 -0.22341129 0.12932548 0.16664648 -0.5044767 0.14995153 -0.43219808 -0.36710918 0.23628566 0.1481969 0.5344694 0.060344107 0.08731624 0.06903076 0.00054152426 -0.23098494 -0.3109201 0.30434647 -0.2865246 -0.5095901 0.13452378 -0.28645298 -0.2420551 -0.22817408 0.013658444
26 0.110390045 -0.009188361 -0.025067046 0.05585604 0.37022758 0.18357122 -0.391933 -0.07553624 0.4966937 -0.25173575 -0.040479545 -0.06602662 -0.0021810946 -0.23924 -0.019166179 0.14727096 -0.21909547 0.10791265 -0.20522231 0.15681203 0.23465388 -0.37045133 0.10148706 0.117170386 0.18812737 0.4133167 -0.0031075522 -0.07938515 -0.22339901 -0.051454246 -0.13226183 0.5437688 0.13029389 0.081529155 -0.17971501 -0.09129727 0.29429278 -0.026040914 -0.057445087 0.38800898 -0.09778044 0.63842094 -0.28794798 0.1316722 0.2830905 0.020441636 0.06951999 0.11495567 -0.0990179 0.4270164 0.34750372 -0.30239156 -0.2725339 -0.1026528 -0.026132159 -0.058012795 0.41979495 0.051522065 -0.14906132 0.122806855 -0.02290897 0.10101835 -0.02406648 0.2873873
20 0.20669559 0.020313706 -0.030600665 0.09857347 0.26937696 0.18050429 -0.012736224 0.16771516 -0.07835715 -0.13919537 0.08869011 0.025312444 -0.17124033 -0.020417761 -0.10284461 -0.04355874 -0.14407878 -0.28719708 -0.026811602 0.12747897 0.2117942 -0.13326028 0.25251442 0.10500897 0.059697434 0.18794258 0.01883154 0.13250594 0.10949058 0.035688307 -0.06797439 -0.12955332 0.27434227 0.033608392 0.09034744 -0.11777598 0.072710216 0.0455506 -0.12014264 0.09392734 -0.16013241 0.25811455 -0.2626258 -0.2696911 0.065374546 -0.059614588 0.0774759 0.042108726 -0.15129508 0.038864717 0.15256552 -0.119489856 0.004757491 0.048727315 -0.09474819 -0.07067834 0.15316385 -0.096602604 -0.13293077 0.13734356 -0.17903966 0.046680223 -0.11871449 -0.012346441
13 0.22754069 0.07474771 -0.06593913 0.060569517 0.27089974 0.16273154 0.06351522 0.14976254 -0.0619427 -0.0879694 0.16988994 0.134914 -0.24621786 0.10832785 -0.17500623 -0.07256199 -0.17915714 -0.33589143 -0.027228573 0.12362771 0.24510488 -0.14368333 0.28989857 0.07039623 0.038969606 0.2089639 -0.038867984 0.16772437 0.19324544 0.13326545 0.015804445 -0.31693614 0.28015512 0.01684696 0.1893972 -0.10179202 0.08626915 0.1199431 -0.15561737 0.028267927 -0.17403053 0.23041888 -0.22911364 -0.41098142 0.0944211 -0.029496994 0.14800732 0.010732389 -0.19452204 0.041534193 0.08051248 -0.064911366 0.099254854 0.142151 -0.18204919 -0.033921782 0.18246803 -0.0077475505 -0.18419226 0.074892305 -0.26811045 0.064229034 -0.06638193 -0.07782997
18 0.21017182 0.021882175 -0.08455622 0.059897665 0.27729616 0.14041774 0.046135526 0.13003652 -0.039730523 -0.05755539 0.16686232 0.12112583 -0.17806078 0.11040979 -0.14511007 -0.08690037 -0.19959354 -0.2846887 -0.032936864 0.11008953 0.23080894 -0.17909582 0.32383403 0.10634345 0.03276727 0.24800158 -0.03484797 0.15418868 0.17314653 0.11888623 0.004706655 -0.27522635 0.25517893 0.027905423 0.1776535 -0.13774776 0.06585199 0.097283065 -0.14178729 0.029365886 -0.1952507 0.25983012 -0.19589004 -0.38129893 0.11866083 -0.06365041 0.09414054 0.025349068 -0.14662597 0.11494015 0.0894243 -0.050646566 0.10626768 0.11531883 -0.18925539 -0.069397554 0.22294104 -0.013820964 -0.20234631 0.055280916 -0.26334444 0.03304525 -0.082464755 -0.042018346
22 0.21781282 0.032228593 -0.12080161 0.038626168 0.2681314 0.12642644 0.051305085 0.082019225 -0.008174925 -0.020130051 0.15836027 0.13833086 -0.16268058 0.124849714 -0.12951988 -0.07854961 -0.25701368 -0.24982658 -0.050378416 0.09273739 0.2171284 -0.17833701 0.31909484 0.12298368 0.005986074 0.27407795 -0.047018267 0.12690777 0.16014166 0.13809028 0.011456204 -0.24773091 0.27460852 0.045929875 0.16505276 -0.13460402 0.07685343 0.12292088 -0.13945162 0.035122085 -0.19567665 0.25535008 -0.14325602 -0.40076202 0.10901048 -0.086364955 0.10812384 0.036518395 -0.14704357 0.15947093 0.08953932 -0.03632188 0.0872006 0.12126175 -0.20514552 -0.10266852 0.24840339 -0.0045578307 -0.23502727 0.038195845 -0.29477277 0.018289395 -0.07607649 -0.036416408
17 0.23745926 -0.26136428 -0.32613388 -0.04814931 0.18585254 -0.033798635 0.21049894 -0.18152697 -0.091933824 0.39708695 0.3248445 -0.022866646 0.08441834 0.1571432 0.029945824 -0.22997518 -0.49888942 -0.048489638 0.09345074 -0.15447699 -0.20220661 -0.34495488 0.7551419 0.3136501 -0.4043375 0.17483571 0.17139566 -0.085442804 0.02272684 -0.10219466 0.1357056 -0.17940187 0.5158182 0.19787997 0.17212065 -0.327302 -0.08448942 -0.14156505 -0.0055424175 0.088993825 -0.2593068 0.09933443 0.28928602 -0.49707234 0.13430241 -0.6522943 -0.6030761 0.3374259 0.28254095 0.70449185 0.12538812 0.08547382 -0.044134054 -0.09704938 -0.15906228 -0.45589843 0.34180143 -0.4791702 -0.61324364 0.22342636 -0.26387694 -0.41728848 -0.28896424 0.09003086
23 0.17622462 -0.022232763 0.16202754 0.16586533 0.23138334 0.2873386 -0.14143506 0.24758808 -0.15688677 -0.29452807 -0.04282842 -0.13467298 -0.14287946 -0.22532569 -0.026169743 0.017263811 -0.07128134 -0.31872028 0.056257017 0.20086518 0.20727769 -0.10657323 0.17130637 0.12043618 0.12804753 0.14217366 0.09144875 0.11894775 -0.0039112982 -0.13497762 -0.23527196 0.20426878 0.33512124 0.04737021 -0.11109255 -0.0688316 0.07217427 0.004785919 -0.08099331 0.24858057 -0.05874179 0.34246448 -0.43152127 -0.07233735 0.04126417 -0.10627918 0.036182735 0.078519456 -0.12748215 -0.08531176 0.28944716 -0.23764345 -0.13109551 -0.03100111 0.1070817 -0.1167316 0.100522175 -0.20967574 0.010162475 0.24730323 -0.034844436 0.048067566 -0.13965869 0.055213038
10 0.20453896 0.021029536 0.14521907 0.1640636 0.26591328 0.27133995 -0.07873945 0.30413032 -0.19483437 -0.29864258 -0.012658782 -0.072539434 -0.22965339 -0.14310214 -0.08720935 0.011264471 -0.041498374 -0.39938995 0.025615059 0.20578402 0.23617733 -0.052325226 0.16701129 0.0840438 0.14405599 0.116786346 0.071675405 0.1792615 0.11057862 -0.074446835 -0.19863828 0.0070728264 0.31278685 0.01968474 -0.016998295 -0.06310556 0.053376004 0.030848077 -0.11756544 0.15226063 -0.09362667 0.27803037 -0.4397353 -0.19248271 0.008856062 -0.033536773 0.13569295 0.045721926 -0.2061701 -0.18444851 0.22406848 -0.21104753 -0.05264168 0.01643159 0.02784008 -0.06930719 0.036568977 -0.16959962 0.029370062 0.22489214 -0.085849315 0.10383638 -0.1364634 -0.011407972
15 0.1979975 -0.08822027 0.16816694 0.17758231 0.23510014 0.28165716 -0.13568723 0.2717318 -0.21185194 -0.2825464 -0.029931458 -0.20593208 -0.1318596 -0.26308724 0.005602906 0.0036843508 -0.028437654 -0.3366827 0.078026354 0.18156311 0.15059505 -0.10084628 0.21847047 0.12578443 0.0927929 0.087633304 0.15318179 0.10254274 -0.016664047 -0.22298054 -0.23565708 0.21669625 0.3521475 0.05009352 -0.10809708 -0.09539347 0.040240448 -0.08093395 -0.048104614 0.25563902 -0.06314251 0.3138128 -0.42963678 -0.058532022 0.01943598 -0.17056371 -0.076353006 0.13735752 -0.07799807 -0.07160195 0.31262967 -0.24425972 -0.16554432 -0.105545156 0.13941732 -0.16046137 0.0574423 -0.31419295 -0.004966163 0.31825423 0.02255801 0.013290729 -0.18686567 0.06362426
19 0.17373356 -0.0371431 0.17241544 0.15559122 0.22241303 0.28736648 -0.12431788 0.24735759 -0.18105696 -0.2846696 -0.055580888 -0.17151324 -0.1467326 -0.253331 -0.02257007 0.04610585 -0.06837648 -0.30113772 0.07220824 0.16656487 0.13931704 -0.08375453 0.18545175 0.121976584 0.06819413 0.10096891 0.13846205 0.07833887 -0.019137941 -0.20823595 -0.24550474 0.23379207 0.36319008 0.057015654 -0.14312539 -0.06447661 0.042544182 -0.026750686 -0.061116986 0.2698196 -0.034481376 0.29740947 -0.41634068 -0.06888773 0.027636757 -0.14491495 -0.023499032 0.123913586 -0.102672346 -0.09344103 0.3139339 -0.25042078 -0.1760989 -0.063447684 0.14961463 -0.14873251 0.073099084 -0.2933312 0.014355152 0.30752143 -0.0012751515 0.019389773 -0.17965595 0.053983983
16 0.17853564 -0.10910488 0.18016776 0.16870962 0.20604113 0.27151656 -0.15324861 0.25009036 -0.1860203 -0.2629902 -0.06428679 -0.21676345 -0.08413092 -0.30117887 0.036504563 0.01864439 -0.042254552 -0.28147182 0.08284191 0.17644237 0.11710961 -0.08865989 0.18181707 0.14340755 0.08323481 0.0836376 0.16310172 0.07822005 -0.060850628 -0.24830441 -0.26549003 0.2985461 0.34703168 0.07082257 -0.16557264 -0.094016194 0.022431172 -0.07904725 -0.03462798 0.2728798 -0.03854289 0.3031073 -0.39879137 -0.006054363 0.023095949 -0.1900757 -0.09269324 0.14763887 -0.03789403 -0.061118104 0.33783993 -0.23906825 -0.18901311 -0.13126801 0.15608461 -0.18100193 0.04873457 -0.3281455 0.014515784 0.31617367 0.042035583 -0.0060391147 -0.1889936 0.09093697
21 0.18074052 -0.0694476 0.18719156 0.19132452 0.19791292 0.2865314 -0.10980516 0.30535078 -0.27848312 -0.28814572 -0.029474296 -0.18483937 -0.14113796 -0.24779639 -0.0056801517 -0.015172336 -0.01671578 -0.37602627 0.09938905 0.19794014 0.15912184 -0.057794318 0.19221725 0.14677183 0.1204676 0.06639168 0.14297514 0.14177845 0.006480221 -0.18061973 -0.26091337 0.17357953 0.3573982 0.048018515 -0.098794565 -0.07609227 0.009047869 -0.053323 -0.075035684 0.20408082 -0.05738319 0.2705807 -0.42201084 -0.0779618 -0.024166824 -0.15467487 -0.014596125 0.0818665 -0.08202057 -0.17099845 0.2933381 -0.2145133 -0.124098994 -0.07215869 0.12829953 -0.15581323 0.016109334 -0.31236064 0.03247376 0.29390234 0.009257812 0.029183296 -0.16561583 0.022927029
27 0.20057724 -0.031362295 0.17783405 0.19820431 0.23556301 0.2992274 -0.14109248 0.3107798 -0.21027504 -0.32117385 -0.041584484 -0.16083357 -0.16704139 -0.2829254 -0.015632743 0.029780664 -0.0098977685 -0.346642 0.042146835 0.22872163 0.21093573 -0.083018966 0.1532674 0.12514529 0.15243873 0.085463084 0.13215162 0.12058265 0.0040058587 -0.1777876 -0.26564518 0.19413741 0.31327212 0.020514885 -0.10156634 -0.08361509 0.079064526 -0.061210927 -0.06312806 0.2290607 -0.06860909 0.34190637 -0.4776605 -0.048858173 0.005731432 -0.08289284 0.021386713 0.0916265 -0.14164762 -0.15850405 0.31646374 -0.2515347 -0.15106003 -0.07703476 0.09836116 -0.10871999 0.03003623 -0.26986107 0.013218208 0.30625996 0.014210488 0.07936737 -0.18184896 0.03135449
12 0.21403727 0.022611814 -0.19342552 -0.015923152 0.23462974 0.06259966 0.121152446 -0.019165583 -0.0026210777 0.09269454 0.23382805 0.15786992 -0.1508204 0.18285076 -0.12124602 -0.098371044 -0.29679605 -0.19100688 -0.042036645 0.015551079 0.11345465 -0.22351553 0.39374033 0.11616518 -0.09262579 0.2205132 -0.025674721 0.08004445 0.15420337 0.14391106 0.10774462 -0.32855746 0.27711415 0.055492174 0.24224137 -0.12839983 0.07501127 0.07497091 -0.11698409 0.00333117 -0.18473108 0.19218953 -0.0206654 -0.44139966 0.12606078 -0.14743213 -0.03014046 0.08197037 -0.05752764 0.28925332 0.037689514 0.02405035 0.100747034 0.11756178 -0.23338045 -0.11530125 0.2649991 -0.05035315 -0.34474292 0.035352375 -0.290425 -0.03994058 -0.09010889 -0.043818388
