34 64
1 0.053806737 0.014360692 0.20311111 0.18911988 0.03906876 -0.088498205 -0.15303724 -0.13523163 -0.107040934 -0.076152846 -0.41181415 -0.030373951 0.20594947 0.04350977 -0.19916335 -0.17671028 0.14938265 -0.06476784 -0.1758248 0.18885413 -0.060247403 -0.31477445 0.037090987 -0.08805236 0.045685563 0.13158986 -0.29436836 0.24139048 0.12589641 0.15109368 0.06484064 -0.0010603031 -0.07668615 0.21508762 -0.036456477 -0.011217561 0.10365188 -0.018739613 -0.11337771 -0.03847212 -0.16149339 0.2056489 -0.1042547 -0.054487515 -0.30826658 -0.32659036 -0.10489626 -0.017444009 -0.05864616 0.044270996 -0.3467663 -0.036871206 -0.021350475 -0.21003485 -0.05597673 0.224272 -0.10931602 -0.05750126 0.0063574514 -0.03627533 0.0029614207 0.047489293 -0.118219845 -0.32554835
34 -0.17495507 -0.023285605 0.1496224 0.19450293 0.010144577 -0.2554224 0.104015395 0.19809073 0.13559783 -0.31447068 -0.20049801 -0.032186683 -0.020432053 -0.04066911 0.16351391 -0.106979005 -0.007553921 -0.10894348 0.028542737 0.29853782 0.18186115 0.00696444 0.03756718 -0.14613363 0.1050041 0.10990115 -0.38852128 0.25576448 0.2650393 -0.16715065 -0.1379578 0.020289015 0.1251081 -0.25728408 0.039288837 -0.23440102 0.15879343 -0.043166813 -0.019958327 -0.37469304 0.096846834 0.17122704 -0.11832605 0.087603725 -0.20928557 -0.13365225 0.0074989866 -0.011729835 0.15656921 -0.034324348 -0.15627584 0.039597157 0.11387394 0.1511719 -0.21583809 0.28025657 -0.19502941 -0.29689786 -0.12827727 -0.081858285 0.20801151 -0.13226785 0.21463996 -0.12851854
33 -0.27062786 0.10945504 0.02874469 0.11659049 -0.07315316 -0.2555384 0.03163147 0.2147232 0.04557382 -0.3975335 -0.15191935 -0.0013547114 -0.16426392 -0.07160145 0.13748102 -0.10237418 0.05688693 -0.25579172 0.06812676 0.34267202 0.17830706 -0.011973806 -0.005855986 -0.17704363 0.106035225 0.1952584 -0.3665017 0.20860343 0.31590736 -0.21337314 -0.15018773 0.039629128 0.095056 -0.30570897 0.034234278 -0.15963648 0.16614486 -0.00042329205 0.030077858 -0.3846499 0.08239489 0.095522255 -0.17051592 0.073339015 -0.26324055 0.0021622672 0.16971496 -0.090220645 0.19077192 -0.081800915 -0.11856249 0.20887294 0.20504801 0.2584043 -0.18309207 0.2773328 -0.1692548 -0.3130297 -0.21587078 -0.10879524 0.149549 -0.07661855 0.14757961 -0.15362453
3 -0.020310761 0.11247065 0.11404821 0.2316925 0.022360595 -0.16642222 -0.14063638 0.058833987 -0.055991348 -0.29299542 -0.3987984 -0.0002033835 0.025704915 0.016638061 0.04402505 -0.12591429 0.071266465 -0.11530621 -0.038271364 0.27635053 -0.0032464624 -0.10279052 0.055549297 -0.12394276 0.047778886 0.112605244 -0.25588372 0.23884965 0.2103103 0.013807378 -0.004411854 0.04334152 -0.092829436 0.012714662 -0.06744508 0.054084394 0.111498356 0.005644545 -0.029295648 -0.10572305 0.010639174 0.15284123 -0.16526335 0.026363922 -0.3311024 -0.24517477 0.07486063 -0.22157535 0.09748648 0.022545047 -0.20170309 -0.03066235 0.059900973 0.020128403 -0.109381475 0.26336026 -0.2148687 -0.20692134 -0.1411283 -0.10095703 0.11490783 -0.03321107 -0.062355198 -0.2361544
2 -0.011039442 0.1638198 0.10230169 0.20075004 0.03856439 -0.093138434 -0.29285693 -0.043838944 -0.16683716 -0.22725439 -0.4570269 0.035016388 0.051026247 0.0075592697 -0.09156026 -0.093347065 0.15958007 -0.17715257 -0.08226674 0.24453554 -0.06141385 -0.181453 0.0062268237 -0.14031892 0.0019836465 0.17936505 -0.15908624 0.23728321 0.14989293 0.070234865 0.046727143 0.03407625 -0.16753963 0.11738737 -0.049002573 0.11889704 0.07857318 0.04599287 -0.027780874 -0.053557433 -0.08949784 0.18100606 -0.2302167 -0.0154776415 -0.37239495 -0.22862945 0.0815833 -0.24239089 0.048122346 0.06121579 -0.2700035 0.0002442312 0.06393492 -0.0877272 -0.038438875 0.25938153 -0.15877318 -0.13543639 -0.14678043 -0.14541869 0.037881054 -0.012348164 -0.16956572 -0.30588317
4 0.082878895 0.12488425 0.17876388 0.27390024 0.053541183 -0.11031647 -0.29045126 -0.06889782 -0.17209373 -0.24134165 -0.5509137 0.020159554 0.13956626 0.03348701 -0.07995222 -0.12951852 0.14056745 -0.08344729 -0.12181247 0.24778393 -0.096621364 -0.1944052 0.07479282 -0.11321508 0.011877125 0.13350423 -0.19717294 0.30690086 0.16218989 0.12771727 0.07683375 0.0726219 -0.20351315 0.18349405 -0.10011733 0.15393901 0.10401475 0.036449526 -0.061456777 0.019633811 -0.07762669 0.21232785 -0.17757717 -0.0027924215 -0.39524055 -0.34886444 0.017524218 -0.27882013 0.033969384 0.06532763 -0.30548087 -0.09170719 0.0045682704 -0.12154632 -0.03988576 0.283007 -0.19991277 -0.15027371 -0.119315356 -0.13698529 0.0468356 -0.017809572 -0.18206874 -0.31920946
32 0.09379398 -0.27391896 0.23645383 0.2581767 0.046530835 -0.2294805 0.1288926 0.06336428 0.22723867 -0.09850069 -0.20396464 0.047498986 0.3127483 -0.025712974 0.056936923 0.05283939 -0.02359516 0.06920867 -0.024498623 0.10295962 0.16504464 -0.13686068 0.091849804 0.0077060536 0.10425381 0.063195646 -0.2781514 0.35831004 0.10006525 -0.08843267 0.032115538 0.03384402 0.13587984 -0.19854559 0.24521638 -0.35670623 0.12437965 -0.15638588 -0.045593683 -0.3464877 0.029568512 0.431485 0.09379188 0.09173279 -0.07364355 -0.25657633 -0.26050058 0.16050373 0.03253035 0.12719238 -0.29609823 -0.21291466 0.044348422 0.033541925 -0.08643424 0.26842102 -0.1567616 -0.14643465 0.0831952 -0.11579624 0.16697827 -0.25848338 0.29560003 -0.05008619
14 -0.09525175 0.043863803 0.07764322 0.14684488 -0.023903714 -0.14754817 -0.08112775 -0.015308253 -0.09224504 -0.20279285 -0.29629707 -0.006760068 0.040735867 -0.033491112 -0.112636976 -0.13166472 0.1428889 -0.18519767 -0.051717777 0.24984224 0.015023172 -0.2415796 0.021591745 -0.09982725 0.08635391 0.1922536 -0.30103534 0.20517957 0.19149409 -0.017340157 -0.00022708463 0.015516369 -0.0038678977 -0.012866042 0.011912429 -0.006313291 0.12561437 -0.045581657 -0.02130042 -0.15576956 -0.089952506 0.18414241 -0.09158584 -0.019043185 -0.28967106 -0.17929885 0.028684136 -0.016355861 0.020224622 0.021078745 -0.24344577 0.07261424 0.08537865 0.010523757 -0.073789395 0.22397082 -0.10675113 -0.109255366 -0.082051724 -0.07263388 0.048412073 0.0091462685 -0.022523033 -0.2360893
24 0.014727615 -0.21101032 0.17108469 0.28746316 0.036476646 -0.2559762 0.12907726 0.21267505 0.2504587 -0.23546246 -0.15583144 0.050474264 0.13195112 -0.058571164 0.1766346 0.104118995 -0.045461528 -0.0110025 0.05162345 0.1919842 0.21804787 0.008628508 0.057813637 -0.04722973 0.1177152 0.13174301 -0.2387387 0.34678423 0.14869152 -0.20843016 -0.037039287 0.051610827 0.15467049 -0.34813866 0.23438028 -0.37031063 0.14328758 -0.13537851 0.012923116 -0.45615163 0.08670927 0.41134056 0.029290011 0.16314629 -0.102513514 -0.14398745 -0.17096193 0.07339714 0.12628259 0.108952396 -0.2117569 -0.120680414 0.11435176 0.18469466 -0.12450809 0.29865557 -0.19008851 -0.24428481 -0.033478796 -0.16407266 0.21939997 -0.27723292 0.37354273 -0.006698656
9 -0.21072532 0.06676483 0.06980329 0.12451241 -0.023786198 -0.20248353 0.019317005 0.12078859 0.008989291 -0.28283814 -0.21033421 -0.037626576 -0.08067229 -0.048441753 0.026171431 -0.14174454 0.08631202 -0.20694222 0.0026340804 0.30815598 0.13127181 -0.103216514 -0.02069163 -0.16187495 0.08593858 0.18046091 -0.35557395 0.17671457 0.2600256 -0.11047084 -0.11091322 -0.004139896 0.091540284 -0.14985886 0.010597139 -0.12971094 0.14145976 -0.02304067 -0.022751616 -0.28825647 0.008299997 0.10942733 -0.16285855 0.028902354 -0.24886395 -0.085405216 0.0689302 -0.007951808 0.107787855 -0.052537743 -0.15926094 0.15471616 0.13000883 0.11754632 -0.17253764 0.2399968 -0.14948589 -0.2269622 -0.13022149 -0.049247954 0.13714713 -0.029966913 0.09652774 -0.20078424
8 -0.038016398 0.16891906 0.10524895 0.2341222 0.01368022 -0.14847414 -0.22659312 -0.017233115 -0.18298846 -0.300239 -0.46833068 -0.024240589 0.0011014075 0.012607871 -0.048620623 -0.19414714 0.15895908 -0.18862389 -0.065600164 0.33715114 -0.08046212 -0.17931181 0.072840706 -0.1395329 0.052615285 0.19100645 -0.29649237 0.2283741 0.25524554 0.041292515 -0.011236577 0.048649404 -0.14074986 0.08569435 -0.11488992 0.14182346 0.13390411 0.037773453 -0.039460734 -0.04553202 -0.068699546 0.12561107 -0.17797688 -0.028722955 -0.4005177 -0.25381744 0.09985228 -0.24669074 0.07824485 0.00041832624 -0.24930698 0.030592993 0.061517335 -0.008636836 -0.07950887 0.27042636 -0.18945423 -0.1824242 -0.17078567 -0.100968406 0.059327073 0.039751433 -0.14567184 -0.29969612
28 0.078669004 -0.1842483 0.21416238 0.29416636 0.03925424 -0.23973428 0.04765492 0.10896694 0.18044671 -0.18703513 -0.24710497 0.025682943 0.21085419 -0.02799618 0.14134015 0.03354456 -0.028826313 0.02391211 0.008853933 0.18536326 0.112291 -0.018298827 0.117379054 -0.0236047 0.09560263 0.09052698 -0.26127264 0.35246485 0.14565922 -0.1104624 -0.003345301 0.05562924 0.08086495 -0.21465239 0.1841137 -0.28603294 0.13242646 -0.09121494 -0.008568668 -0.34094107 0.05037828 0.38817886 0.027734382 0.11664071 -0.12626696 -0.23519966 -0.19442898 -0.0060811704 0.08903731 0.10584833 -0.24567942 -0.18944618 0.064026795 0.07157303 -0.09004358 0.2947102 -0.18582815 -0.21560834 -0.036120806 -0.15846145 0.18292592 -0.24657987 0.25964397 -0.068883695
6 -0.16856639 -0.07941455 0.24989681 -0.085998446 -0.113560624 -0.1205534 0.061707336 -0.39446667 -0.105350845 0.10780617 -0.23908782 -0.023841353 0.39078814 -0.017207729 -0.6101891 -0.33837155 0.3183195 -0.14128579 -0.3311728 0.09446161 0.023434982 -0.8224227 -0.045438297 -0.024909956 0.17650616 0.13365765 -0.6117476 0.21786095 0.1012953 0.24145257 0.10442883 -0.073184 0.1114638 0.29699495 0.11712017 -0.21969414 0.168844 -0.11705723 -0.2175215 -0.16888799 -0.33842313 0.26086363 0.027758937 -0.19061285 -0.32679364 -0.36014596 -0.16739427 0.45469594 -0.2882935 -0.025593797 -0.5938939 0.21038127 -0.008264241 -0.31705305 -0.028756447 0.1710762 0.07446721 0.18577018 0.26275367 0.14713684 -0.17071612 0.18079837 -0.12525088 -0.518089
7 -0.22374775 -0.13642088 0.18795364 -0.11002806 -0.12340212 -0.16875663 0.18441418 -0.3000541 -0.031483423 0.09696617 -0.10142258 -0.028431073 0.3335091 -0.024140928 -0.5211399 -0.2892751 0.26968285 -0.15971294 -0.26328933 0.10107124 0.0812453 -0.7553457 -0.04568083 0.0041723717 0.21589716 0.1234671 -0.62941206 0.16081397 0.11718504 0.12747943 0.05866554 -0.09278608 0.19306213 0.14262131 0.16975062 -0.2886009 0.15172574 -0.18648346 -0.17009385 -0.24222633 -0.30029288 0.24786325 0.07530109 -0.17484988 -0.24950613 -0.28728068 -0.14666893 0.5497072 -0.26862067 -0.041684464 -0.50333893 0.23152009 0.04162505 -0.20145963 -0.04734957 0.14681433 0.08786519 0.19310974 0.26822653 0.16205233 -0.08674063 0.14480646 0.007002321 -0.42033714
31 -0.19011529 0.11220433 0.057723336 0.1660827 0.0003544525 -0.19428496 -0.09758196 0.1330887 -0.04804158 -0.31466666 -0.2970217 -0.0120227765 -0.09115334 -0.05131804 0.06308062 -0.11479492 0.09051672 -0.23294412 0.02545165 0.3308786 0.078568086 -0.057770822 -0.004629273 -0.1845596 0.056536857 0.19527297 -0.31216326 0.22072245 0.2503097 -0.12075692 -0.095179304 0.007474858 0.016501434 -0.13236587 -0.01055495 -0.056802344 0.11633597 -0.0017804122 0.012980066 -0.25433683 0.015836649 0.13208546 -0.23335339 0.03912744 -0.2927778 -0.10705848 0.119613335 -0.10899282 0.14862761 -0.015204186 -0.17000328 0.112735696 0.14415576 0.09730315 -0.15629737 0.28142595 -0.1733442 -0.24485388 -0.20864002 -0.12997533 0.14926744 -0.054415647 0.051792357 -0.22688554
30 -0.12950349 -0.08148775 0.1626099 0.21253747 -0.0016489204 -0.2311933 0.07860586 0.21517673 0.17148879 -0.28644085 -0.17756483 -0.00712692 -0.018228674 -0.056745924 0.13759808 -0.050464932 -0.02382622 -0.1022296 0.02383097 0.26350746 0.20060427 0.011256516 0.020022271 -0.1532789 0.094229765 0.15295756 -0.3299684 0.29155517 0.21634953 -0.19595623 -0.10504144 0.022025606 0.13907616 -0.28880498 0.10845116 -0.30488878 0.15384978 -0.038249515 0.0020880639 -0.4482948 0.08706417 0.25986403 -0.1345322 0.11823783 -0.18225856 -0.104908 -0.057002492 0.022472626 0.15450782 0.013790597 -0.18239778 0.039305992 0.12140744 0.117263615 -0.18737985 0.30076435 -0.18843909 -0.28898475 -0.15209839 -0.14226277 0.18041275 -0.15287481 0.24556576 -0.12619168
25 0.13642156 -0.346927 0.30830848 0.34125614 0.10213633 -0.24956627 0.14626944 0.11986251 0.31592107 -0.11276711 -0.24768339 0.046858653 0.34828004 -0.027467255 0.106705084 0.09085573 -0.08023363 0.14016008 -0.021175249 0.114602275 0.2036487 -0.056992654 0.09084893 -0.004871354 0.09145785 0.060781617 -0.26698494 0.42744583 0.090686366 -0.110986665 0.042387523 0.034701455 0.15251406 -0.24088176 0.27311411 -0.45388925 0.13442695 -0.16338572 -0.055758633 -0.4291149 0.069232084 0.5252076 0.08427171 0.15107358 -0.053671274 -0.28292388 -0.34317693 0.16596304 0.06868998 0.18138877 -0.31757185 -0.301894 0.021559438 0.002402939 -0.122163296 0.31877807 -0.1965196 -0.2103597 0.07189365 -0.15779495 0.2217527 -0.3412905 0.38466942 -0.034692556
29 -0.016466904 -0.04052923 0.13536666 0.2220108 0.014280827 -0.19295163 0.0026733214 0.057389565 0.051829327 -0.23841025 -0.28732255 0.032928452 0.1022605 -0.038648795 0.0021429106 -0.037299987 0.045375187 -0.049162377 -0.017387442 0.20033449 0.07449785 -0.115389585 0.048844274 -0.07594582 0.084790654 0.12571684 -0.25073093 0.2783313 0.17101942 -0.06850966 0.0056175636 0.053857602 0.014062416 -0.12141482 0.06743717 -0.10988444 0.13927656 -0.057046715 -0.026397021 -0.23577017 0.016773688 0.28228906 -0.026783954 0.064696185 -0.22757101 -0.19785403 -0.050830897 -0.025849966 0.06662083 0.06615448 -0.23824894 -0.056334868 0.06627455 0.06623058 -0.077792585 0.25572443 -0.1774008 -0.17324662 -0.0480294 -0.1089918 0.1179119 -0.13279867 0.0965106 -0.14607978
5 -0.11859814 0.010328749 0.16426301 -0.036159214 -0.10380246 -0.0938141 -0.023079785 -0.33218256 -0.17955524 0.026995432 -0.2849398 -0.03829748 0.27877706 0.0038155245 -0.54400384 -0.30928546 0.31080687 -0.18772925 -0.28204218 0.15218043 -0.028745562 -0.734418 -0.029521972 -0.04087551 0.15278096 0.17677622 -0.5064435 0.16697176 0.14594537 0.21568473 0.10470956 -0.062012877 0.031827625 0.30444744 0.036694814 -0.060103156 0.13843578 -0.11443027 -0.16138817 -0.0627416 -0.32527605 0.19180988 -0.010068603 -0.18869047 -0.355755 -0.32886186 -0.081213236 0.31439757 -0.24415797 -0.038056076 -0.48705286 0.20628361 0.007892553 -0.25324363 -0.023206718 0.15161702 0.029251572 0.16245961 0.17861164 0.120117664 -0.13943098 0.23059297 -0.187896 -0.47506332
11 -0.17440839 0.018149907 0.10835757 -0.100759216 -0.14169411 -0.13346697 0.015972704 -0.3071071 -0.18173093 0.021168703 -0.19201776 -0.017501103 0.25918868 -0.011740257 -0.54685676 -0.30550787 0.34526113 -0.2395644 -0.27624622 0.1561657 -0.016610052 -0.7827358 -0.028108748 -0.012338255 0.19035676 0.19329184 -0.57551044 0.13295452 0.14336658 0.1804282 0.09096106 -0.07328003 0.06270057 0.25567403 0.074971244 -0.08520303 0.14036559 -0.1454067 -0.1531675 -0.10047079 -0.3514838 0.16718037 0.015681703 -0.21451168 -0.3619621 -0.28467467 -0.049715243 0.38353872 -0.23387645 -0.05750384 -0.48850664 0.28476846 0.059702367 -0.19265361 -0.007316654 0.14465581 0.071360044 0.20369817 0.18107791 0.14342059 -0.13299096 0.23617597 -0.15557604 -0.47650206
26 0.19372968 -0.3830571 0.31990138 0.34056917 0.06482192 -0.2758059 0.17905156 0.09047269 0.34324324 -0.09009592 -0.21270408 0.055389915 0.4160866 -0.0042541386 0.12496634 0.09992736 -0.06855336 0.18471211 -0.03476123 0.07244222 0.18131924 -0.08411065 0.1320199 0.05167676 0.10389052 0.010767954 -0.2871921 0.4398627 0.07696562 -0.09196085 0.051727634 0.0614382 0.16564667 -0.22802465 0.31356132 -0.48604167 0.14906916 -0.16684839 -0.07834782 -0.42403492 0.07246364 0.548066 0.1591949 0.1424296 -0.018498195 -0.30472282 -0.40171632 0.16437522 0.046339434 0.15539292 -0.3337026 -0.3384215 0.02165576 0.022420727 -0.080271974 0.30837545 -0.19402239 -0.18174446 0.11450779 -0.15142529 0.2135717 -0.35627517 0.3879565 -0.019354858
20 -0.03627265 0.07670718 0.13773538 0.19029345 0.008292821 -0.15919337 -0.114865705 0.006530334 -0.060044635 -0.25001153 -0.34226286 0.003943532 0.04979719 -0.015134439 -0.043424226 -0.123153746 0.108292684 -0.11851231 -0.064372964 0.25719965 0.0038790365 -0.16211472 0.05033663 -0.1157971 0.0642407 0.15690115 -0.2881231 0.2529667 0.19912487 -0.0071189017 -0.008039391 0.043229397 -0.058684222 -0.0017530686 -0.024894685 -0.016421368 0.12627856 0.01480584 -0.05379825 -0.15169922 -0.041653287 0.19129743 -0.12523647 0.0152410455 -0.3104931 -0.19774722 0.0074683516 -0.11821921 0.06392646 0.010243932 -0.24564523 0.022437677 0.055287108 -0.0071031987 -0.08783218 0.25089097 -0.15759553 -0.17501692 -0.10605854 -0.09017178 0.05896833 -0.02910345 -0.03353748 -0.24073496
13 0.049454443 0.13222001 0.13645567 0.23571564 0.027797677 -0.11376757 -0.24516787 -0.049876407 -0.16558546 -0.21701762 -0.47366455 -0.006776536 0.09148809 0.03625917 -0.09079467 -0.15323476 0.15373091 -0.14754774 -0.1143872 0.26887932 -0.074423745 -0.22081606 0.06567008 -0.12120512 0.037882943 0.18062615 -0.23809128 0.26351967 0.19091837 0.10373713 0.04650641 0.051853202 -0.16063862 0.15604453 -0.08644919 0.11473021 0.10474017 0.015233408 -0.053110678 -0.007987751 -0.10856989 0.16672763 -0.1673156 -0.03390875 -0.3737721 -0.2890649 0.029932603 -0.20743884 0.03562807 0.03627782 -0.28294706 -0.029397484 0.029483838 -0.09765869 -0.06849864 0.25371295 -0.16774175 -0.1485147 -0.11205029 -0.10848179 0.03166998 0.044705115 -0.16780818 -0.29486576
18 0.032569434 0.10771391 0.1365516 0.19773972 0.022761723 -0.13598397 -0.2343452 -0.09613483 -0.15118466 -0.18353488 -0.43155614 0.015596531 0.14450876 0.015997563 -0.11397475 -0.1455783 0.1802399 -0.12990831 -0.12464039 0.23387228 -0.071311735 -0.27091584 0.07004253 -0.087093346 0.0509595 0.16291425 -0.27577198 0.26130265 0.15959696 0.09313782 0.051042162 0.045110896 -0.13960885 0.14025602 -0.03588859 0.05977655 0.10117494 0.01056763 -0.06719604 -0.051353626 -0.12390798 0.20508315 -0.12776494 -0.04891233 -0.3651202 -0.27529007 5.871414e-05 -0.15137711 0.022617668 0.037921354 -0.32792196 -0.009840227 0.043235842 -0.09454712 -0.028854128 0.25710714 -0.12752241 -0.09972539 -0.07170871 -0.09156948 0.026693726 0.012876458 -0.13958764 -0.3057925
22 0.037965078 0.08703648 0.17679311 0.17364131 0.012227585 -0.12686251 -0.21296406 -0.1252929 -0.12372153 -0.14512743 -0.42535177 0.011042086 0.17150384 0.021974554 -0.14512804 -0.16954471 0.17239131 -0.1009428 -0.15272234 0.20893057 -0.08437507 -0.28243867 0.070883185 -0.08866133 0.0483007 0.13342206 -0.3007411 0.26871508 0.13842358 0.12099928 0.051885124 0.030258453 -0.12485406 0.18242067 -0.035958484 0.022852546 0.11712765 0.027235242 -0.10197441 -0.05229165 -0.13716651 0.20814888 -0.12693247 -0.051867604 -0.34423462 -0.29054928 -0.043335762 -0.1211729 0.0037586777 0.03322095 -0.3516073 -0.021322003 0.0056938617 -0.1593336 -0.03235685 0.24826209 -0.11378636 -0.09489398 -0.052363522 -0.07786032 -0.0026362005 0.017303335 -0.14646536 -0.3355227
17 -0.3802886 -0.052956678 0.14803651 -0.2511923 -0.20110889 -0.16130714 0.20690265 -0.38326004 -0.09987632 0.11322935 -0.06625062 -0.039739583 0.29639313 -0.068906814 -0.7057799 -0.39473277 0.37166247 -0.2837925 -0.31101444 0.11876869 0.10709557 -0.95494825 -0.10100875 -0.015702711 0.2597398 0.18175523 -0.7422392 0.10288149 0.15803385 0.16389023 0.05149933 -0.12805231 0.23351584 0.19416907 0.1689011 -0.27462068 0.18791297 -0.20035149 -0.18322736 -0.2534618 -0.39663386 0.1941732 0.052546117 -0.25213504 -0.32497925 -0.23807777 -0.06536823 0.6677144 -0.32759494 -0.09823567 -0.5688814 0.42824548 0.07473049 -0.21457028 -0.047014493 0.118113026 0.16042581 0.2786922 0.30312917 0.2441873 -0.18593693 0.2627373 -0.0827302 -0.5384784
23 -0.16713952 -0.00094252673 0.1083274 0.20691366 0.015551122 -0.22147395 0.0069289906 0.2078663 0.101898275 -0.30797642 -0.23326658 0.0020600047 -0.062404457 -0.06860083 0.13949496 -0.050578207 0.017227884 -0.15330395 0.048489224 0.3030698 0.17629693 0.022166625 -0.014500565 -0.1618441 0.070107564 0.17091706 -0.30701768 0.251389 0.22944547 -0.18284993 -0.11556155 0.0052791606 0.11084693 -0.24419841 0.07799825 -0.21574031 0.13332818 -0.028776009 0.017948873 -0.40017322 0.08513432 0.22500914 -0.19257729 0.11120989 -0.20565744 -0.08054233 0.024552118 -0.051232576 0.17843744 0.010299002 -0.14674357 0.05683293 0.1432182 0.12450875 -0.18476641 0.2953121 -0.19235328 -0.3001889 -0.1832632 -0.15396787 0.19565392 -0.15121056 0.19860058 -0.14555506
10 -0.13714573 0.08423484 0.09700468 0.23639163 0.022301598 -0.18935858 -0.08871931 0.17968653 -0.0200467 -0.3612778 -0.32996953 -0.020705475 -0.10543945 -0.053656686 0.14273143 -0.08575714 0.03218568 -0.18081358 0.047055036 0.34395856 0.08199482 0.052657157 0.027336664 -0.18473388 0.049799647 0.18815957 -0.2546525 0.2660001 0.2521019 -0.1392348 -0.10654979 0.05356385 -0.00795553 -0.1796266 -0.04708581 -0.036803424 0.14444911 0.022980226 0.024130045 -0.2589654 0.06717794 0.143596 -0.20519027 0.0844568 -0.29240066 -0.12065839 0.09280447 -0.1889261 0.17827046 0.006951591 -0.13860214 0.041439842 0.11266281 0.126054 -0.16720404 0.290269 -0.21551436 -0.318247 -0.24404347 -0.16225433 0.16462883 -0.093710005 0.08582408 -0.16864268
15 -0.25901803 -0.0012848643 0.059084702 0.15368749 -0.029670399 -0.24022305 0.09800733 0.21475928 0.095541716 -0.34001166 -0.16023608 -0.01180837 -0.11398462 -0.10286791 0.09987226 -0.0789301 0.03861259 -0.21630876 0.07892761 0.33363274 0.2097869 -0.033481758 -0.031115172 -0.15479383 0.110986754 0.20609273 -0.35746935 0.2187117 0.2760847 -0.23165278 -0.14048682 0.0020217318 0.1790308 -0.3149936 0.10110899 -0.2285602 0.15281339 -0.06268152 0.03406913 -0.44749308 0.07803892 0.20867826 -0.14643982 0.09761832 -0.20839837 -0.04377798 0.06178441 0.047612797 0.15423223 -0.020777239 -0.14040893 0.1414127 0.18610224 0.21062934 -0.20057352 0.28207225 -0.17579393 -0.26931837 -0.17054808 -0.11631935 0.19034505 -0.11392125 0.23234357 -0.13037582
19 -0.22814943 -0.026362732 0.07593696 0.18126597 -0.006539312 -0.2172566 0.09345568 0.21908365 0.10506248 -0.30509773 -0.172777 -0.0401633 -0.11235527 -0.07368443 0.11958166 -0.079852976 0.0014792706 -0.17985442 0.07205205 0.32676592 0.19594596 0.00733355 -0.023014436 -0.18720302 0.09824947 0.18720543 -0.34971696 0.21500602 0.25144002 -0.21362244 -0.1517622 -0.023239732 0.18304436 -0.28262082 0.06132293 -0.2373865 0.13660455 -0.05252928 0.026333142 -0.42886695 0.07846604 0.18978705 -0.1746425 0.10187267 -0.19519773 -0.058923922 0.041824766 0.041834645 0.15432823 -0.005836937 -0.113689184 0.09938293 0.14840959 0.15636721 -0.22017461 0.28239918 -0.18140802 -0.29930553 -0.1665208 -0.105582014 0.20599519 -0.11571986 0.23630247 -0.1309968
16 -0.27431467 -0.037207473 0.06620209 0.11125429 -0.043175068 -0.24592379 0.13590549 0.22931612 0.15101874 -0.30050907 -0.091937274 -0.011372054 -0.10029803 -0.10549728 0.12106023 -0.06914216 0.0064111645 -0.19285384 0.08314936 0.29152137 0.2377217 -0.0059055723 -0.026291355 -0.15594977 0.111221075 0.17144175 -0.37716228 0.21233267 0.25169954 -0.25078788 -0.15141235 -0.015789693 0.2060589 -0.3507146 0.11815953 -0.29699904 0.14912999 -0.058947638 0.029766422 -0.4733758 0.08613833 0.1952231 -0.13328359 0.09659088 -0.15731929 -0.005547338 0.04391811 0.096030675 0.15575153 -0.029583411 -0.12282182 0.1505863 0.17900352 0.19608966 -0.20185784 0.2640884 -0.14083196 -0.27045482 -0.15375307 -0.10415437 0.1874119 -0.13675907 0.27421498 -0.11692587
21 -0.26348355 0.05455219 0.04544457 0.1236393 -0.030937672 -0.2151917 0.020022623 0.21950181 0.06854022 -0.35578406 -0.14974241 -0.0098088365 -0.15323526 -0.10201134 0.136272 -0.068787694 0.039501265 -0.2517569 0.08745277 0.33586442 0.18438208 0.019542277 -0.04407441 -0.18456106 0.094269544 0.20381898 -0.31364718 0.204428 0.24657798 -0.22488359 -0.14971015 -0.0086125275 0.13417916 -0.29882345 0.06888188 -0.18622802 0.13518071 -0.022604024 0.051134884 -0.4230522 0.06838154 0.1619253 -0.22436066 0.10907223 -0.23055118 -0.006007027 0.1086786 -0.042928014 0.17093617 -0.031866767 -0.10664339 0.16741547 0.17730293 0.19252937 -0.19522817 0.27935374 -0.16158468 -0.2785725 -0.2190396 -0.12989594 0.18562737 -0.10871341 0.18613817 -0.15679976
27 -0.17938735 0.02157637 0.065491535 0.21186116 -0.030992676 -0.22839014 0.04301559 0.25559488 0.089612424 -0.39018264 -0.18412948 -0.013316166 -0.1376032 -0.076553114 0.16898808 -0.038687766 0.0027923486 -0.18148583 0.072187215 0.34469175 0.16490163 0.05987448 0.013752259 -0.16946185 0.10774829 0.20810416 -0.32305032 0.23776294 0.26599127 -0.24214034 -0.14276469 0.029815737 0.10723293 -0.31745273 0.057808246 -0.19072291 0.14526677 -0.019213997 0.048238818 -0.4216829 0.088465095 0.21294017 -0.14910254 0.12585278 -0.23406047 -0.047405463 0.06042873 -0.07014699 0.18340884 -0.016536187 -0.12103782 0.10154158 0.16908668 0.22081405 -0.18819469 0.3056882 -0.19873631 -0.32168454 -0.22746201 -0.14916918 0.19232771 -0.12652501 0.22264875 -0.117294736
12 0.03897972 0.06510682 0.13533112 0.11600334 -0.030728543 -0.09008474 -0.16277629 -0.18917795 -0.17744799 -0.080461845 -0.3735187 -0.01907846 0.20114785 0.0481656 -0.3027473 -0.1981957 0.21988839 -0.118773885 -0.19924712 0.1708848 -0.09755185 -0.45163435 0.03343874 -0.05220142 0.07530271 0.15740678 -0.32530594 0.20604084 0.13514619 0.17316611 0.10898723 0.0033264374 -0.10226903 0.25772104 -0.03208942 0.051585574 0.099548906 -0.044964932 -0.11192956 0.0065636197 -0.21136281 0.18312424 -0.05948989 -0.11283808 -0.34231186 -0.31009787 -0.049566913 0.018525492 -0.10444809 0.013190594 -0.35879597 0.03177754 0.0060201 -0.19333224 -0.013608313 0.1844708 -0.07345197 0.028904399 0.031110711 -0.008138164 -0.05584343 0.12947045 -0.19683081 -0.36195987
