34 64
1 -0.12331616 -0.003502132 0.28951737 0.10345844 0.15775737 0.25984693 -0.21251054 0.11354278 0.10591339 -0.19194931 0.04566655 -0.13332283 0.059524845 0.26516563 0.44566703 -0.25023678 0.030340852 -0.19655032 0.10653206 0.117610015 -0.06412548 -0.08560431 -0.119980656 -0.21810934 0.12853864 0.12383718 -0.020658504 0.2135194 0.022626985 0.020058788 0.048927728 0.18453845 0.071379274 0.19708048 0.09095205 -0.008853963 0.13639505 -0.29688624 -0.042192675 0.019159148 0.0047307815 -0.11883547 0.008573101 -0.09008638 -0.10902351 -0.021210939 -0.16778795 -0.07471565 -0.115337536 -0.3252986 0.20157734 0.14800996 0.08465659 0.0023633214 -0.027537312 0.026420752 -0.29326802 -0.25189173 0.024059145 -0.16469368 -0.24106205 0.0013875474 -0.101766996 0.060196627
34 -0.15951204 -0.15413117 0.185816 -0.17351288 0.17230934 -0.021225408 0.018017571 0.085957855 0.111965075 -0.146334 -0.0007386788 -0.03221589 0.19519025 0.28604233 0.09681754 0.021517856 0.15789576 -0.08851001 0.2624867 0.20744035 -0.07396237 -0.0006831977 0.02932948 -0.010275021 -0.2134104 -0.05788816 0.17447153 0.14954823 -0.21236607 0.11216998 0.018622044 0.07764648 0.0058636875 -0.01438213 0.08288007 0.08026528 -0.19371076 0.019748095 -0.056889605 -0.054164547 0.33011696 0.19612628 0.23969351 0.14453252 -0.5881661 -0.13853244 0.049386777 0.036799304 0.15911454 -0.14481366 0.37597522 -0.059807666 0.28924432 -0.20186329 -0.023657601 0.029663438 -0.14731802 -0.15757978 0.22147258 0.049119614 -0.11283742 -0.03475168 -0.32856935 0.005397327
33 -0.19444934 -0.23619616 0.23866107 -0.20039293 0.08477356 0.055420704 -0.065892346 0.08063921 0.04609927 -0.034875877 -0.009934284 -0.06984815 0.22883238 0.27186736 0.107512325 0.017174335 0.10170033 -0.027688976 0.28280452 0.30824834 -0.01241928 0.04375841 0.13472645 0.10338873 -0.22405924 -0.049698256 0.32839856 0.1132214 -0.1424986 0.018417332 0.1435761 0.04622622 -0.013814955 -0.07379466 0.063774005 0.035480883 -0.17144114 0.0966613 -0.076803096 -0.07494131 0.4962279 0.217872 0.13590266 0.24611966 -0.55898035 -0.19266024 0.1711791 0.006564165 0.12606874 -0.06325083 0.40866908 -0.06098905 0.3515636 -0.20831318 -0.101415254 0.0435073 -0.0921843 -0.07880962 0.15093996 0.12796722 -0.1576725 0.015407597 -0.3086897 0.09653663
3 -0.16760345 -0.041303895 0.3650612 -0.056577735 0.07136976 0.14090618 -0.045406073 0.18685225 0.1243008 -0.13519269 0.011193849 -0.20347245 0.1278165 0.20040491 0.3175151 -0.14749432 0.035679355 -0.06908321 0.2407595 0.24331626 -0.06668823 -0.10427566 0.051538665 -0.036769412 -0.082220405 0.124621056 0.15036936 0.2170543 -0.08653785 0.052407205 0.089614324 0.10412584 0.029757036 0.13552007 0.09936057 0.06815655 0.049924538 -0.07964889 -0.0592716 -0.12141749 0.26007017 -0.009806674 0.023606062 -0.09234521 -0.3314262 -0.13807604 -0.04264848 -0.08369275 0.025817774 -0.13022561 0.20730183 0.09137187 0.11964051 -0.14808188 -0.09267325 0.06702068 -0.22006528 -0.17108257 0.0070015974 -0.09592201 -0.22745726 0.09256564 -0.23024775 0.117080085
2 -0.1411018 -0.014011045 0.4392047 0.047758188 0.046660654 0.2687327 -0.16633533 0.20758806 0.10621063 -0.124004014 -0.030229254 -0.19502497 0.08985991 0.20609535 0.4048468 -0.22637177 -0.054689992 -0.08129011 0.20235844 0.24998935 -0.065144755 -0.1370829 0.027109018 -0.09171184 -0.026831167 0.10948022 0.13126302 0.23931079 -0.018385837 -0.023327483 0.17107856 0.14190088 0.055261284 0.19493678 0.09437567 0.022451058 0.16916132 -0.18504964 -0.09021975 -0.10945985 0.2125311 -0.12480524 -0.07647115 -0.13451861 -0.15776248 -0.15453164 -0.03979967 -0.10408004 -0.037458625 -0.11523897 0.16696852 0.14134495 0.065315865 -0.05608466 -0.12535478 0.021529362 -0.20748961 -0.19312295 -0.045272354 -0.07673424 -0.27448323 0.10799906 -0.21015199 0.18796492
4 -0.14297444 0.04658839 0.47311372 0.042528175 0.07939187 0.26733705 -0.12707837 0.22442754 0.13628595 -0.17122547 0.033869814 -0.23813118 0.06754201 0.1986256 0.47213197 -0.27565575 -0.024823133 -0.10958028 0.2350377 0.22101659 -0.06386902 -0.15727763 -0.026699798 -0.15199563 0.00992261 0.18179859 0.055368878 0.2764154 -0.027183235 0.034393266 0.11689889 0.14697695 0.06250552 0.25782987 0.1274167 0.054642953 0.19141555 -0.23417068 -0.06995782 -0.14348055 0.16633235 -0.13121976 -0.066059604 -0.25280184 -0.19278927 -0.13642685 -0.12882772 -0.12333409 -0.030974718 -0.1871728 0.14144869 0.18888712 0.01608855 -0.09229341 -0.119257785 0.053371355 -0.31023064 -0.23049048 -0.06070702 -0.17295215 -0.3004128 0.14508943 -0.20657867 0.14293632
32 0.03845557 0.071318455 0.038756013 -0.12763615 0.24252133 -0.123878956 0.037352804 0.05456667 0.14259124 -0.2185194 0.037192363 0.16766672 0.057226498 0.3419156 0.09596025 -0.005428729 0.10845963 -0.12540811 0.25138506 0.011016245 -0.18015178 -0.016909512 -0.23389383 -0.25671807 -0.086266145 -0.22357647 -0.17451173 0.11956584 -0.16197298 0.20724033 -0.28239825 0.08905699 0.0510614 0.18485285 0.13702837 0.034085345 -0.19840975 -0.18323222 -0.033225495 -0.04971267 -0.020129975 0.20175666 0.3665663 0.0076897275 -0.44659075 -0.011403462 -0.1492532 0.01781236 0.20685747 -0.21094534 0.31117788 -0.026925987 0.2437047 -0.004952818 0.078877814 -0.046295613 -0.22971171 -0.4113421 0.30117738 -0.030273609 -0.06877065 -0.08836454 -0.32187986 -0.12988272
14 -0.15746869 -0.09270235 0.2512195 -0.020605022 0.09560072 0.19089966 -0.19986154 0.08062732 0.061354164 -0.12432831 0.034022 -0.09879436 0.11618681 0.28279772 0.30580226 -0.12645021 0.055687886 -0.11284798 0.17151113 0.19392377 -0.056870215 0.012085816 -0.035945002 -0.056970205 0.011038912 0.058195654 0.12779236 0.13990928 -0.0070794146 -0.0018078584 0.085860334 0.09940431 0.022328736 0.10295954 0.068709284 0.011950102 0.038281113 -0.12416174 -0.061663073 -0.002472273 0.21734324 0.030048197 0.010662499 0.067153215 -0.2481676 -0.073222406 -0.025947064 -0.06389847 -0.032374937 -0.20064516 0.27046022 0.037797485 0.21705103 -0.02186526 -0.08205033 0.023938756 -0.19837074 -0.20558287 0.04619717 -0.04308944 -0.2139989 0.030053696 -0.16039282 0.107153594
24 -0.013374883 0.0012930641 0.08670611 -0.22215639 0.18211372 -0.1616814 0.082627945 0.075117946 0.11838312 -0.16134888 -0.0060534803 0.13992073 0.11198775 0.32921576 0.008439444 0.08274061 0.1183541 -0.030219894 0.30618507 0.10884083 -0.1865763 0.01570908 -0.13950744 -0.13575284 -0.20099989 -0.2683257 -0.040072355 0.122039855 -0.23547903 0.2206385 -0.23175825 0.06820461 0.032290563 0.07865328 0.12576182 0.094269775 -0.26678976 -0.06944203 -0.06344536 -0.13216852 0.18754767 0.29152313 0.34583837 0.054738365 -0.61000174 -0.08998184 -0.034680247 0.048499454 0.32140994 -0.080868386 0.36882967 -0.10130301 0.2818693 -0.08617619 0.036790807 -0.061213087 -0.1442316 -0.35173187 0.299348 0.061035078 -0.063596316 -0.07460487 -0.42345884 -0.10623037
9 -0.1908353 -0.18891951 0.22149715 -0.100986436 0.11491137 0.09967691 -0.11222803 0.05664129 0.06766012 -0.09370304 -0.011944832 -0.09662208 0.20289963 0.2712876 0.17957826 -0.023341509 0.11251389 -0.092145234 0.18898445 0.2318616 -0.046032697 0.03726975 0.06938961 0.032003343 -0.11129828 0.0032857493 0.23158668 0.1257345 -0.1056363 0.021009937 0.12237789 0.0829396 0.0071558356 -0.013533231 0.064110786 0.04818819 -0.08072287 -0.011892422 -0.07263296 -0.00077453797 0.3443274 0.13272572 0.1030154 0.18566987 -0.4259321 -0.12385712 0.065563604 0.0009050832 0.042551894 -0.15712143 0.3553396 -0.047663588 0.28934282 -0.1331458 -0.05931563 0.038489934 -0.1298745 -0.105233 0.13535221 0.040545717 -0.16904917 -0.025503844 -0.23373835 0.099635996
8 -0.19679357 -0.06698728 0.44060242 -0.03811708 0.056271967 0.275209 -0.15742101 0.19250278 0.11849826 -0.12651294 0.033553448 -0.24545518 0.12321384 0.20866787 0.41802484 -0.2207927 0.022506045 -0.124704994 0.22829838 0.28174108 -0.04590617 -0.073111966 0.042296432 -0.0349416 -0.013165357 0.20524712 0.20645307 0.22716065 -0.027170133 -0.01707346 0.18180545 0.13841031 0.035672348 0.16228311 0.08218036 0.051679853 0.15331163 -0.1249982 -0.0611018 -0.12005237 0.29448065 -0.07091044 -0.067887686 -0.08366765 -0.28757355 -0.14975391 -0.019601582 -0.09644864 -0.05565858 -0.17553209 0.2004916 0.14893934 0.1248476 -0.124717474 -0.14482172 0.07636024 -0.26595998 -0.15002465 -0.04416617 -0.1139826 -0.31197804 0.13856421 -0.18551369 0.15743789
28 0.0043744585 0.028808873 0.13217364 -0.169046 0.1949856 -0.08205406 0.0757932 0.12534572 0.15517391 -0.19141282 0.012371108 0.105249405 0.069897465 0.2842357 0.12295623 -0.0110416375 0.08925469 -0.095175765 0.29599795 0.10120015 -0.16546774 -0.0430378 -0.15967517 -0.19949163 -0.14579506 -0.15763038 -0.07061822 0.14951263 -0.19974957 0.19216481 -0.1978771 0.09258798 0.03990059 0.159789 0.12615521 0.060864333 -0.17322238 -0.12467574 -0.039247893 -0.14542755 0.09599761 0.18452342 0.3095267 -0.036060676 -0.51886576 -0.09757948 -0.06636001 0.027305963 0.24507046 -0.13997988 0.27441764 0.0121548325 0.2080206 -0.09065259 0.015282307 -0.03833529 -0.22207639 -0.34797025 0.24934508 -0.007757772 -0.10409603 -0.018374097 -0.37062797 -0.10990551
6 -0.17623952 -0.17762494 0.021197416 0.286101 0.3629607 0.41411337 -0.5872426 -0.11685152 0.027237114 -0.20420103 0.13428587 0.012897044 0.05481037 0.54088145 0.60125685 -0.33913982 0.067851126 -0.37527448 -0.0010558496 0.045704976 0.05285019 0.050721463 -0.2908327 -0.3598565 0.37904134 0.06520462 -0.088562116 0.102760576 0.268839 -0.11614041 0.002770608 0.1779422 0.085400514 0.19271934 0.06543953 -0.21945116 0.09754897 -0.45830595 -0.060246553 0.43326944 -0.17677395 -0.08455766 0.0891709 0.32395554 0.16126798 0.14331207 -0.2743377 -0.08153221 -0.4248574 -0.7049463 0.46009097 0.035243455 0.35969993 0.23535867 0.04809802 0.02767923 -0.34668532 -0.38746622 0.14958566 -0.15838492 -0.17588826 -0.1788107 0.09666055 0.08060232
7 -0.17384894 -0.2226565 -0.10795198 0.18294224 0.34504336 0.27497646 -0.52320445 -0.15779509 0.028330835 -0.19775225 0.12031837 0.085497595 0.060021866 0.54441994 0.44382173 -0.2300924 0.12673116 -0.33183202 -0.008561877 0.034572706 0.03374352 0.14755695 -0.26892477 -0.28163484 0.31547832 -0.008766185 -0.056985345 0.042298537 0.21002941 -0.10686453 -0.050020613 0.12835106 0.064118944 0.121396884 0.043764643 -0.19878414 0.020862691 -0.35386354 -0.04843299 0.4511822 -0.13960673 0.021151803 0.14630361 0.4295185 0.07153804 0.18312219 -0.22415604 -0.032773774 -0.35901347 -0.6564399 0.491837 -0.06501072 0.44258615 0.23834172 0.060224514 0.037885487 -0.27521122 -0.38303214 0.20760788 -0.105768524 -0.115664035 -0.21699977 0.081604496 0.050376967
31 -0.19000854 -0.16202131 0.31492367 -0.09486881 0.09308117 0.13396919 -0.101209514 0.1392508 0.06636095 -0.102402344 -0.032500852 -0.11192909 0.17367281 0.2691001 0.21776357 -0.06973394 0.079240575 -0.060506567 0.22592637 0.28314033 -0.05433481 -0.03115756 0.1014811 0.040268954 -0.16562477 0.016003944 0.26654232 0.18440206 -0.127809 0.034332942 0.17987476 0.10726619 0.019923257 0.013712992 0.079475604 0.050236866 -0.03280632 -0.0014786968 -0.078580484 -0.07024121 0.38668868 0.08100455 0.06310935 0.0981775 -0.44090644 -0.17632727 0.07641777 -0.02056733 0.06418748 -0.084689155 0.3062906 0.014379889 0.23436043 -0.15839753 -0.09459424 0.030122554 -0.13224797 -0.13088313 0.07740188 0.032943383 -0.2111801 0.036076587 -0.29330847 0.15262485
30 -0.12232547 -0.12381334 0.19214408 -0.14737609 0.17051806 -0.019180803 0.015525637 0.0979943 0.074593514 -0.138323 -0.02587197 0.01697324 0.17114604 0.32695356 0.08901657 0.05170452 0.15450254 -0.049756847 0.25806463 0.18843459 -0.1007441 -0.03430408 -0.021633338 -0.057600603 -0.22067057 -0.151026 0.131094 0.14739126 -0.22016837 0.14719146 -0.0252546 0.10727757 0.00622629 -0.0255695 0.09324961 0.071825415 -0.23962864 -0.005486561 -0.04980075 -0.05108465 0.31459647 0.20113322 0.26497945 0.1363459 -0.59136504 -0.15582171 0.03645596 0.03655117 0.20914909 -0.112748876 0.40372345 -0.06901917 0.28564987 -0.1746751 0.0018401076 -0.040462505 -0.13446186 -0.21368152 0.23420045 0.08816897 -0.090082355 -0.075159594 -0.3716989 -0.01787619
25 0.064389 0.11184046 0.062609494 -0.15281102 0.28625005 -0.1803611 0.10716392 0.09207929 0.17012532 -0.27038795 0.016793365 0.21263419 0.053356722 0.38092175 0.07941278 0.014459938 0.14270884 -0.10309767 0.27517024 -0.0037155328 -0.23654953 -0.080252215 -0.26772806 -0.3021718 -0.12590861 -0.2998683 -0.2410004 0.15793233 -0.23906995 0.288502 -0.34612557 0.1233695 0.067145035 0.20479979 0.16952957 0.07049645 -0.27384186 -0.20630506 -0.03359469 -0.09542617 -0.02993064 0.23724969 0.4628084 -0.04854579 -0.5595115 -0.034474913 -0.19589075 0.030465716 0.3054383 -0.19218849 0.33121246 -0.035037693 0.2191986 -0.039486706 0.1132149 -0.06713767 -0.2377166 -0.46695706 0.36933953 -0.02511024 -0.049726408 -0.13487701 -0.44181514 -0.17716914
29 -0.08185809 -0.01659874 0.22989124 -0.104929954 0.123518504 0.05333415 -0.044865478 0.09368787 0.11724826 -0.15038615 0.026281433 -0.032856494 0.099295884 0.26862034 0.20917055 -0.06212192 0.057117328 -0.06171346 0.24217537 0.14854752 -0.116582416 -0.03909024 -0.08375537 -0.10361641 -0.07222912 -0.037084877 0.023659453 0.13771902 -0.101233065 0.09042926 -0.057602562 0.0595914 0.028531378 0.15119223 0.10793773 0.05977047 -0.065746196 -0.09751858 -0.06294308 -0.076657 0.18572648 0.11473919 0.1480476 -0.0045105116 -0.3822077 -0.08401149 -0.07169523 -0.045620777 0.112866044 -0.15328626 0.27530822 -0.006593765 0.19761273 -0.05243837 -0.048963815 0.0026087756 -0.1921559 -0.2672878 0.14054887 -0.018752271 -0.13864945 0.024074921 -0.28258502 0.027861182
5 -0.20739558 -0.14319333 0.10498712 0.23359288 0.2433789 0.40591815 -0.53734154 -0.054715957 0.021597696 -0.1620013 0.12925142 -0.09158147 0.049044326 0.45275652 0.5842577 -0.31829652 0.061700698 -0.30041695 -0.00741287 0.09581632 0.02379146 0.06301446 -0.20243227 -0.24068235 0.35764205 0.142051 -0.020639246 0.11956221 0.24332155 -0.12499659 0.06814497 0.17220977 0.058826204 0.18394776 0.04839492 -0.16041684 0.17338824 -0.3923332 -0.050003607 0.3339228 -0.08093735 -0.120454274 -0.03713593 0.22782858 0.13802955 0.12427187 -0.24340634 -0.098242894 -0.3856575 -0.6009513 0.36827862 0.06723217 0.30769953 0.18797189 -0.0141757745 0.049509056 -0.32065284 -0.31478176 0.04030112 -0.17497197 -0.23701042 -0.103533134 0.112106614 0.12500015
11 -0.22038506 -0.20537713 0.03995401 0.19302171 0.2334064 0.38875932 -0.58795756 -0.084396265 0.004103291 -0.14622371 0.12600577 -0.050053682 0.06237816 0.48386607 0.55209047 -0.3080573 0.04765962 -0.2899053 0.0022186716 0.123558514 0.06029673 0.13596798 -0.17790553 -0.21017484 0.34053382 0.10991933 0.032728992 0.08629617 0.26178807 -0.17030147 0.057481825 0.14615816 0.06602973 0.14511517 0.04659602 -0.19936058 0.16531149 -0.35986033 -0.059249982 0.38174012 -0.04796235 -0.08049472 -0.040783394 0.3297993 0.16305655 0.15326175 -0.1907312 -0.09366558 -0.4154915 -0.6170335 0.43286535 0.020789454 0.38885477 0.22688366 -0.014807648 0.07018504 -0.2982093 -0.32464424 0.06085162 -0.14280155 -0.21369042 -0.1159761 0.14289999 0.13510792
26 0.10504132 0.13634913 0.008090361 -0.17448756 0.2875509 -0.2024849 0.12469881 0.07404312 0.18871637 -0.2684859 0.035382193 0.23674296 0.028467245 0.35321185 0.07597287 0.008576386 0.11303523 -0.13901426 0.300442 -0.034298852 -0.2351296 -0.05143325 -0.31374678 -0.35996944 -0.11104833 -0.3018299 -0.2803932 0.14434941 -0.2233309 0.29965976 -0.42881873 0.10289155 0.061826747 0.23067823 0.18295667 0.053528644 -0.27825257 -0.23132445 -0.017982205 -0.11100498 -0.094648175 0.25746357 0.48437485 -0.066196755 -0.54470205 -0.013394439 -0.19534783 0.04272746 0.30632773 -0.24549727 0.321636 -0.021202182 0.22293775 -0.013650971 0.13224794 -0.062335394 -0.2733158 -0.5003512 0.40116107 -0.0290425 -0.02468196 -0.12382848 -0.4053974 -0.24338777
20 -0.14027523 -0.05856473 0.32318744 -0.04586134 0.10189149 0.18328555 -0.12513997 0.12358144 0.09357029 -0.13569269 0.029624792 -0.12202695 0.1123801 0.23975387 0.31858388 -0.14543247 0.026167063 -0.096523374 0.21607712 0.21284099 -0.054919053 -0.06464453 -0.023928143 -0.093778215 -0.038257312 0.07285747 0.107762575 0.19106457 -0.061302155 0.023273336 0.07801032 0.11524624 0.027080845 0.12804475 0.09807727 0.032256447 0.030465081 -0.13139018 -0.054868285 -0.07381626 0.23071225 0.0026613032 0.035717666 -0.02551136 -0.30029026 -0.1065372 -0.033970304 -0.054168973 0.005685145 -0.18790978 0.2500887 0.07385383 0.15362594 -0.081975594 -0.07961963 0.03239681 -0.22137964 -0.1898587 0.047517825 -0.045044456 -0.21406336 0.056983713 -0.21722192 0.08099127
13 -0.15169878 -0.0013779708 0.4244177 0.02472215 0.06500854 0.26411423 -0.16178088 0.1947387 0.09514627 -0.13439785 0.039265838 -0.2228897 0.09391488 0.21883711 0.44034806 -0.240437 -0.005089724 -0.120769255 0.18896784 0.22690372 -0.05780796 -0.095334 -0.009688622 -0.10680934 0.040470567 0.1701725 0.09368124 0.24471706 -0.012320309 0.010219719 0.122924946 0.15790644 0.047920424 0.18828234 0.09584769 0.037108496 0.16217457 -0.20625268 -0.06431898 -0.11182365 0.189082 -0.102540016 -0.0768028 -0.15083517 -0.19564761 -0.10352233 -0.08958672 -0.110617444 -0.061095346 -0.20599464 0.1768297 0.17132783 0.07711725 -0.084948376 -0.11151622 0.049502928 -0.28378156 -0.20145065 -0.053534664 -0.15227811 -0.3071029 0.11182703 -0.16257322 0.13378221
18 -0.1247001 -0.023121402 0.35954252 0.029655516 0.10501087 0.2669965 -0.19947654 0.16608346 0.11543895 -0.13924879 0.03595981 -0.14500803 0.06931473 0.2446947 0.4335807 -0.26228353 -0.033050716 -0.14893107 0.20150554 0.22097059 -0.048123147 -0.08330302 -0.04298804 -0.15292662 0.041728903 0.12447931 0.073623314 0.23050813 0.0138347 -0.006140307 0.08821263 0.14649445 0.058780327 0.21148677 0.102665864 -0.0019863597 0.15437387 -0.23200384 -0.070009425 -0.08079865 0.14277393 -0.092761375 -0.032858294 -0.098061554 -0.16269681 -0.08543687 -0.08975194 -0.08948364 -0.08565771 -0.23409139 0.19515195 0.15375344 0.10769609 -0.03404629 -0.08603124 0.04827254 -0.28815565 -0.23142618 -0.00942532 -0.124601535 -0.27524492 0.09554176 -0.15781151 0.12302313
22 -0.10743558 -0.018323159 0.34769002 0.06171665 0.13731016 0.28410378 -0.20677045 0.15187159 0.10992656 -0.14761196 0.038261384 -0.12861322 0.05867477 0.2582736 0.45817822 -0.2813022 -0.02920081 -0.16793093 0.1823963 0.1909576 -0.02697655 -0.116090894 -0.06615707 -0.19932069 0.07168793 0.12146099 0.03778567 0.22703715 0.015477852 -0.00044948352 0.08072229 0.1678419 0.071131915 0.21919504 0.11130608 -0.02655144 0.13511659 -0.26269114 -0.057041157 -0.046978965 0.09082968 -0.11840808 -0.0059203217 -0.09312893 -0.13589445 -0.06529008 -0.11147497 -0.07920698 -0.11657294 -0.27148846 0.19215047 0.17155863 0.09093543 -0.031244269 -0.055636983 0.037964053 -0.29707134 -0.23631692 0.0046636006 -0.12485397 -0.25373977 0.062561385 -0.14227653 0.09810192
17 -0.26158223 -0.33590686 -0.12793341 0.27148166 0.36973354 0.42714337 -0.72090185 -0.22807038 -0.039394885 -0.14379841 0.13961822 0.05762983 0.09864081 0.6370342 0.5474018 -0.27234626 0.12697965 -0.3625738 -0.06517254 0.08172929 0.09448332 0.20285894 -0.24378805 -0.23859538 0.41958836 0.040521707 0.03789605 0.004483269 0.32761875 -0.21964067 0.04864409 0.13601835 0.04249666 0.08648999 0.0074046277 -0.2725342 0.060563013 -0.36328948 -0.076091446 0.6150753 -0.092109546 -0.008524547 0.07804257 0.6314582 0.20657721 0.21867387 -0.20674212 -0.046815228 -0.5302461 -0.7700775 0.59996974 -0.10592256 0.56512994 0.3091328 0.039399114 0.05146149 -0.26720014 -0.36099726 0.17258988 -0.08295042 -0.1344459 -0.24868363 0.18197954 0.15690988
23 -0.13411668 -0.13541836 0.24710348 -0.14695804 0.12664957 0.018603168 -0.003733798 0.122782044 0.07350557 -0.12035192 -0.05343954 -0.030516338 0.19861162 0.30022568 0.11062314 0.030133476 0.12149513 -0.027614862 0.24882212 0.2329433 -0.11099753 -0.045740187 0.0544412 -0.0046197847 -0.23181812 -0.10892463 0.19123565 0.16935252 -0.19754182 0.12979157 0.052523363 0.09647743 0.0040624356 -0.012434111 0.093609035 0.075400874 -0.17794923 0.022506 -0.07929287 -0.079538554 0.35916114 0.18261787 0.20802203 0.12660913 -0.55626595 -0.17147487 0.06856412 0.018879037 0.1806257 -0.0654463 0.36937606 -0.052565496 0.26244643 -0.17234755 -0.023637667 -0.009587048 -0.116772085 -0.17309721 0.18564628 0.09187507 -0.13414843 -0.034972586 -0.37490547 0.06449063
10 -0.1703133 -0.11673006 0.36265236 -0.1339222 0.080475844 0.09724121 -0.010204893 0.16440564 0.08392073 -0.10465238 -0.02950637 -0.12392469 0.18151854 0.21980119 0.19049028 -0.037479594 0.08579621 -0.03318502 0.26584813 0.26753917 -0.06735783 -0.051691853 0.08219662 0.04137959 -0.2010139 0.021915603 0.23794872 0.19031553 -0.17362441 0.08068212 0.15313788 0.0916157 0.012293707 0.024922354 0.080789365 0.102810524 -0.07599577 0.023569727 -0.080745965 -0.15136985 0.42946172 0.10635703 0.081743054 0.0017772098 -0.5337717 -0.21871181 0.08709427 -0.010795411 0.1545294 -0.039861012 0.27077013 0.020447847 0.17930055 -0.22070737 -0.11228913 0.016927477 -0.14514501 -0.1201976 0.07880383 0.03145949 -0.20509994 0.076104306 -0.346644 0.09743682
15 -0.17687945 -0.20282784 0.18437959 -0.18050697 0.12797108 0.0046033254 -0.060706392 0.06666321 0.05462401 -0.104031496 -0.02330122 -0.011842316 0.211809 0.34229583 0.07664922 0.06667385 0.15417318 -0.025341518 0.23810588 0.24097192 -0.092991814 0.040552814 0.053099208 0.061510406 -0.21579686 -0.11793807 0.2505744 0.11611292 -0.17619619 0.08601707 0.06845675 0.058129918 -0.014422665 -0.06288574 0.0767899 0.07158538 -0.20182945 0.069747806 -0.07576267 -0.009561088 0.42135888 0.24066862 0.19977105 0.25917658 -0.5788547 -0.15277535 0.088129856 0.021878822 0.16663773 -0.09580708 0.44025007 -0.12851506 0.3732716 -0.14015426 -0.046305466 0.012642639 -0.09804052 -0.16303617 0.19850855 0.11737727 -0.123727374 -0.054903522 -0.34634298 0.08185289
19 -0.16790046 -0.1906705 0.19191538 -0.1445168 0.13200425 -0.002558698 -0.028405247 0.07037548 0.06802159 -0.13609183 -0.03391233 -0.02817097 0.21798049 0.31918523 0.082243055 0.07480236 0.17263737 -0.042066544 0.213037 0.22249727 -0.10208014 0.0041571977 0.041529812 0.046472065 -0.21065144 -0.08846208 0.22459882 0.12283376 -0.20044637 0.12642789 0.06630887 0.06936961 -0.011700987 -0.06435833 0.0751235 0.08223148 -0.22212222 0.06391709 -0.0811384 -0.018335538 0.39283964 0.22658388 0.21886739 0.21037067 -0.58175683 -0.14485154 0.08716979 0.023009833 0.16425303 -0.08532981 0.40021318 -0.0992763 0.31766924 -0.16169654 -0.019248493 -0.0059493347 -0.08934813 -0.14794083 0.19834079 0.117416896 -0.10367147 -0.0711934 -0.34680375 0.04863814
16 -0.15319291 -0.22232631 0.11947908 -0.17428456 0.1579679 -0.025986165 -0.039177682 0.042500958 0.03977288 -0.09222384 -0.035090156 0.04099069 0.20247112 0.34310338 0.03320841 0.09207516 0.16187875 -0.03097869 0.22496815 0.21205918 -0.07288335 0.045232203 0.05378511 0.053135574 -0.22670536 -0.15762874 0.22785667 0.08887933 -0.19151783 0.09560191 0.04766843 0.061487056 -0.007863146 -0.088394165 0.06431288 0.03972673 -0.26154444 0.08865796 -0.06825205 0.014787323 0.38829014 0.26214594 0.25749964 0.29979014 -0.57427156 -0.14204402 0.10123517 0.05381898 0.1695985 -0.08724297 0.44087625 -0.13319387 0.3713923 -0.14865313 -0.013546286 -0.002953556 -0.062280968 -0.15347998 0.23913814 0.15123177 -0.07241806 -0.09404562 -0.34010652 0.04236624
21 -0.18530603 -0.2103715 0.215654 -0.14786752 0.11453929 0.038571417 -0.05622234 0.09585592 0.041977137 -0.08029938 -0.06967186 -0.03803463 0.2113076 0.29309547 0.09265517 0.061251443 0.122456744 -0.0040309564 0.25236252 0.2806456 -0.054409515 0.0126179615 0.10441739 0.09271245 -0.24777906 -0.099688314 0.28943554 0.11909499 -0.18023197 0.06103101 0.12888964 0.06337482 -0.0069585065 -0.07555087 0.06888244 0.06682137 -0.18101855 0.08201382 -0.10311998 -0.039339103 0.46417516 0.1939103 0.16050702 0.2200086 -0.5442568 -0.19407117 0.13808422 0.03205292 0.15500076 -0.039863028 0.38831642 -0.10835762 0.31722626 -0.1721254 -0.06850978 -0.011891298 -0.066237904 -0.114755556 0.16381605 0.13692251 -0.12500948 -0.024811255 -0.34414807 0.11080928
27 -0.17184317 -0.17889361 0.25282413 -0.21185762 0.08637035 -0.0061086756 0.012740483 0.11115698 0.077863336 -0.108764276 -0.03155076 -0.055913992 0.2043882 0.29774866 0.0979059 0.06573926 0.13099544 -0.010687819 0.28284216 0.27154335 -0.10462961 0.009107214 0.06648861 0.047456235 -0.246535 -0.08513448 0.24501021 0.14553571 -0.21989235 0.106465995 0.058535974 0.071903266 -0.010619644 -0.05386889 0.07650749 0.1020914 -0.18879768 0.0694541 -0.08087625 -0.10790493 0.43786538 0.20925187 0.17510024 0.16391253 -0.61639726 -0.19820386 0.11298333 0.03377195 0.2236605 -0.03541499 0.39371967 -0.088024415 0.29324043 -0.19994684 -0.066870116 -0.009921419 -0.09166926 -0.1541854 0.16550481 0.12968928 -0.11561747 -0.016390271 -0.37105033 0.039590854
12 -0.14104782 -0.027254174 0.25622115 0.11563879 0.11563394 0.30535188 -0.32216027 0.08943062 0.06075403 -0.14767173 0.09209593 -0.15741399 0.03094038 0.29270664 0.5024457 -0.29648402 0.0034980436 -0.18524839 0.07739433 0.14311382 -0.016779529 -0.03274204 -0.10713867 -0.1963048 0.21119104 0.14872189 6.908507e-05 0.18575439 0.10677379 -0.04372332 0.061247602 0.16592075 0.06994983 0.21423139 0.08944303 -0.06332969 0.19709994 -0.30532312 -0.040719125 0.07511578 0.019729082 -0.13682543 -0.07793193 -0.03512804 0.0047056833 0.017188966 -0.18237509 -0.10832059 -0.2073145 -0.37656108 0.20976517 0.14717628 0.1419636 0.060924534 -0.0522773 0.055349443 -0.29675865 -0.2552633 -0.033869334 -0.17837712 -0.2601692 0.019401694 -0.0037770553 0.09939752
