34 64
1 0.012035114 -0.039057884 -0.10798948 -0.16224301 -0.06593158 0.29461288 -0.04318412 0.093252756 0.27878317 0.28112346 0.036275554 0.0778566 0.015963096 0.054992847 0.24296151 -0.289264 -0.15078156 -0.037593015 0.2070786 0.024941677 -0.2914373 0.023244262 0.11913387 -0.14032973 0.25475404 -0.12494437 -0.0965146 -0.039695323 -0.1181752 0.24833483 -0.32019693 0.2928759 -0.0070282225 0.17604943 -0.07653688 -0.0030008666 -0.10892715 0.023497153 -0.319137 -0.046558797 -0.058961224 0.05588122 0.0037876286 0.05618842 -0.081960104 -0.090286314 -0.0141295465 -0.09793642 -0.18802294 -0.055913072 0.0020394363 0.009761797 0.22669765 -0.05920942 -0.09464175 -0.04838031 -0.40680233 0.043427788 -0.0071064434 -0.00050106016 -0.026583707 0.20498332 -0.25639078 -0.16212787
34 -0.037090514 -0.059225027 0.38042906 -0.080436185 0.1676946 0.0800992 0.032912783 0.040168293 -0.14507999 0.045786187 0.081189305 0.052630864 0.09267354 -0.04252424 0.11306507 -0.15913916 0.034538664 -0.23396389 0.12869567 -0.06549473 -0.2045185 0.004660376 0.102418505 0.061512794 -0.019230036 0.03825708 -0.3074435 -0.093079045 -0.006095984 0.48091936 -0.14558126 0.25292942 -0.33479685 0.14027517 0.03496118 -0.09089268 0.03590735 0.0811619 0.025207015 -0.2712646 -0.03008275 0.15214355 0.21638553 -0.41339946 0.07672166 0.016039545 -0.104599185 -0.022273272 0.051578894 -0.26019567 0.1906409 0.031267338 0.06531301 -0.062556475 0.24930435 -0.008764153 -0.07402488 -0.048942603 -0.2791545 -0.06659761 -0.011435126 0.3242025 -0.37225574 -0.0034568447
33 -0.052498877 -0.10994114 0.3969167 0.001869056 0.116159275 0.10815778 -0.12420731 0.10256196 -0.21221796 0.006529719 0.17042021 0.13152273 0.06833312 0.00272764 0.056483526 -0.07488703 0.1078504 -0.22591768 0.18983792 -0.12398995 -0.28942275 -0.085612535 0.1027037 0.08538923 -0.16123044 -0.07067925 -0.4606715 -0.056663908 0.06901617 0.5423456 -0.18880673 0.13345097 -0.31728733 0.121196486 -0.021954088 -0.10838338 -0.006224886 0.05371131 0.032569546 -0.17322555 0.0010764175 0.190833 0.2263308 -0.3472208 0.082925655 0.05928103 -0.03675451 -0.06381737 0.22139686 -0.24083963 0.2797066 -0.0070114257 0.022930445 -0.09668723 0.29272696 0.009238356 -0.00036532705 -0.041539647 -0.28305888 -0.15161778 -0.007147233 0.23063216 -0.41518858 0.09043937
3 0.043898586 0.0030189855 0.22376211 -0.1298467 0.043250944 0.17928952 -0.14322719 -0.0008339725 0.12616608 0.18823105 0.043327343 0.28252825 0.0027933037 0.020646231 0.11861576 -0.19611612 -0.025245547 -0.084866494 0.16155091 -0.042922568 -0.2820162 0.069180645 0.08580943 -0.031689774 0.045926888 -0.08367784 -0.27706718 -0.008004356 -0.032746714 0.33610588 -0.34500152 0.27403373 -0.07366298 0.16144153 -0.014789817 -0.051946856 -0.01220208 -0.005682126 -0.16516697 -0.07052831 -0.029575838 0.14745608 0.085921496 -0.056122858 5.585584e-05 -0.1130442 0.033393957 -0.07216431 -0.008247816 -0.094384834 0.14112674 -0.041975535 0.0810043 -0.11108774 0.1744198 -0.03691367 -0.34275797 0.0002666398 -0.1495861 -0.0086869495 -0.0133559685 0.17294705 -0.38097173 0.06239122
2 0.037735764 0.020573154 0.0850473 -0.13638592 -0.040802617 0.24610591 -0.20289622 0.06349845 0.23712875 0.24361576 0.06410748 0.32883084 -0.024733083 0.030840604 0.13314602 -0.20645198 -0.03890884 -0.05744166 0.21158926 -0.017128257 -0.3309689 0.057884824 0.09781516 -0.10780443 0.09992081 -0.15033263 -0.25433353 -0.021091493 -0.023500575 0.25148314 -0.4008551 0.25510317 0.014571612 0.15015511 -0.07574091 -0.06312227 -0.09267126 -0.018599616 -0.26165357 0.045198567 -0.024157034 0.12937132 0.021665076 0.10974525 0.022852054 -0.115819655 0.105475545 -0.11207442 -0.01713671 -0.06315539 0.059179727 -0.055282388 0.13977651 -0.12583926 0.12333771 -0.055791177 -0.39203647 0.06298922 -0.056342408 -0.023782121 -0.053111352 0.10569277 -0.40773684 0.035026353
4 0.07542012 0.053728867 0.077262275 -0.202524 -0.01617667 0.26929128 -0.1899082 0.0039373524 0.32290256 0.3090124 0.028936613 0.36607555 -0.024438756 0.022902202 0.16691919 -0.24457994 -0.07814409 -0.023692429 0.1945288 -0.015596715 -0.34422737 0.12527257 0.10928802 -0.13581541 0.16662972 -0.11992853 -0.20997557 0.002681415 -0.07759576 0.24423791 -0.45125803 0.32938853 0.054678112 0.18841963 -0.05165964 -0.052074 -0.07996203 -0.028499229 -0.33765185 -0.0020269041 -0.022396391 0.12517281 0.023739278 0.10923495 -0.016958361 -0.18482216 0.097173326 -0.116452605 -0.13623384 -0.036596302 0.06051258 -0.06792341 0.16320972 -0.108556 0.09150411 -0.056988038 -0.50904274 0.030364735 -0.05018657 0.056066453 -0.039931554 0.15097491 -0.40300828 0.021628862
32 -0.17562114 0.003990336 0.16000739 -0.22255799 0.17971364 -0.06186189 0.20861699 0.012258489 -0.04912497 0.062141795 0.015528723 -0.15967809 0.17909469 -0.09524157 0.18788868 -0.23797315 -0.114022 -0.24946621 -0.026925314 0.056124646 -0.1469068 0.17280266 0.110414036 -0.10934296 0.1620322 0.31807566 -0.03141928 -0.09393775 -0.12664618 0.21270312 -0.06181842 0.29476708 -0.23383664 0.06907228 0.0018752886 -0.008704418 0.06982443 0.1731015 -0.14719315 -0.3994089 -0.11995099 0.036061265 0.22020966 -0.43661568 0.18992215 -0.095400535 -0.22662236 -0.091477886 -0.2749222 -0.25671938 0.038379382 0.016458767 0.12570481 0.061649654 0.07663719 0.054540392 -0.14596209 -0.035121113 -0.12235884 0.18271467 -0.11379263 0.44457877 -0.31211916 -0.30212313
14 -0.031344034 -0.094500475 0.062153623 -0.075651914 -0.019421654 0.20021226 -0.09184832 0.11569141 0.06939448 0.13891381 0.11297806 0.07714726 0.025444057 0.048152138 0.1691794 -0.18322834 -0.04716965 -0.12265616 0.19195035 -0.03893145 -0.28986064 -0.050822485 0.10555001 -0.034594227 0.07514035 -0.10924843 -0.27889037 -0.02058355 -0.033408433 0.3194016 -0.28456587 0.18336788 -0.10107143 0.13448288 -0.10004419 -0.01886665 -0.077273555 0.03316421 -0.1899082 -0.082009435 -0.08074673 0.09889848 0.10006968 -0.0888115 -0.005480446 -0.034757603 0.0029422161 -0.11959525 -0.0029844914 -0.11556006 0.14081174 -0.008266612 0.12900618 -0.065836325 0.030517004 0.00907866 -0.24670078 0.028064342 -0.074540175 -0.06488242 -0.032397192 0.17623195 -0.32873604 -0.07288947
24 -0.16255644 0.032649193 0.37916315 -0.1633225 0.24744456 -0.0905119 0.13646089 0.013108162 -0.18160814 -0.004056304 0.044109475 -0.082040384 0.16418949 -0.12480639 0.089464515 -0.17606683 -0.0001125664 -0.31234822 0.00088964583 0.012982194 -0.15974602 0.1623285 0.09038995 -0.04524037 0.052447557 0.31667507 -0.15019496 -0.12518752 -0.06079057 0.33115214 -0.058444865 0.27539024 -0.2960438 0.05177547 0.03866916 -0.055070862 0.10645223 0.1719688 -0.04092904 -0.40222335 -0.086132616 0.083395995 0.2923767 -0.5290291 0.2647437 -0.02163408 -0.18759044 -0.0845879 -0.113499425 -0.29383236 0.14184757 -0.022364482 0.055483755 0.04553262 0.26683474 0.07292108 -0.028382825 -0.048151586 -0.23739308 0.14658706 -0.1079025 0.42114946 -0.38326192 -0.17948101
9 -0.025399722 -0.09028703 0.2323335 -0.024329849 0.067172386 0.17254847 -0.06390915 0.09855074 -0.09492445 0.060366347 0.12142659 0.05874038 0.04181773 0.018257564 0.11584125 -0.15558763 0.03862857 -0.17325339 0.20136584 -0.06986023 -0.26591513 -0.09905765 0.09769451 0.035894044 -0.022846622 -0.09942092 -0.35157198 -0.07085732 0.010376386 0.47286257 -0.18869865 0.18940589 -0.24703528 0.12372608 -0.038906354 -0.060867015 -0.03396239 0.044173464 -0.034481734 -0.13970539 -0.036380872 0.13833597 0.14259507 -0.25121036 0.0046172226 0.060167223 -0.03386647 -0.06209001 0.1388133 -0.18733005 0.20285222 0.018726595 0.07398452 -0.08634749 0.16244091 0.002171083 -0.09105548 0.006135987 -0.22047848 -0.1492244 0.0048788767 0.22621778 -0.3476925 0.004073447
8 0.05336397 -0.038640767 0.15209255 -0.14004245 -0.0051679155 0.29816443 -0.21898434 0.064218655 0.18806048 0.23761763 0.08433152 0.3397877 -0.028568115 0.056867342 0.14284997 -0.1884163 -0.017472504 -0.04289548 0.24768992 -0.067898266 -0.33980826 0.023784414 0.10749898 -0.055470362 0.09108916 -0.20534186 -0.34337476 0.014600149 -0.046374615 0.37889686 -0.43637586 0.2754653 -0.022592446 0.18055128 -0.07348318 -0.051176213 -0.096692584 -0.04416056 -0.24216035 0.004353987 -0.027822074 0.14079772 0.067807555 0.05672645 -0.059264444 -0.11198276 0.09645346 -0.10655092 0.002909561 -0.07395821 0.16483824 -0.034788996 0.12094523 -0.119555585 0.1272159 -0.05169405 -0.3971883 0.029143285 -0.10125576 -0.054989632 -0.022770535 0.1333595 -0.39205104 0.07821849
28 -0.13029525 0.03329377 0.29085416 -0.21098325 0.20193367 -0.02692909 0.103878744 0.0051683625 -0.04077076 0.09670819 0.0032949778 0.020060081 0.14093378 -0.11177449 0.13827719 -0.18006994 -0.039998554 -0.22774403 0.018072173 0.009798469 -0.15926155 0.20967223 0.10541892 -0.07386052 0.11817612 0.24404182 -0.110971116 -0.08597771 -0.095324725 0.28148884 -0.118714295 0.2987453 -0.21866159 0.094407134 0.035031218 -0.04039154 0.04527554 0.13674079 -0.12362649 -0.36149815 -0.06387075 0.07484788 0.22264734 -0.39496115 0.20889972 -0.10907782 -0.15923661 -0.076029904 -0.20955962 -0.26365587 0.08664937 0.0036957643 0.0879614 0.045116615 0.19977763 0.00725025 -0.14760238 -0.06247644 -0.16915104 0.15961039 -0.12818691 0.4053366 -0.3584306 -0.17201085
6 -0.13002977 -0.3344318 -0.61338574 -0.019187849 -0.3135076 0.37593234 0.09301077 0.35842377 0.2621334 0.31216443 0.2186261 -0.44699204 0.103222944 0.14757012 0.5076071 -0.42066365 -0.41022483 -0.124329686 0.29514554 0.0630044 -0.4539674 -0.30947217 0.20132276 -0.119892955 0.2976309 -0.22897807 -0.12128469 -0.03370458 -0.085760295 0.26521555 -0.21650733 0.13900453 -0.16008253 0.20488119 -0.2690594 0.05969933 -0.28399748 0.15741734 -0.48559365 -0.06886491 -0.16232722 0.05529886 -0.031762622 -0.010740502 -0.22362922 -0.012154608 -0.2064323 -0.12885512 -0.2906727 -0.10923073 -0.056478743 0.08746219 0.44961932 -0.03554501 -0.54108435 0.014668201 -0.35331836 0.07965818 0.19947727 -0.17408113 0.022583392 0.2929638 -0.16325834 -0.5515021
7 -0.16775934 -0.36718872 -0.5260284 0.0055941166 -0.2629818 0.26704624 0.16499533 0.33663857 0.1023963 0.19048314 0.23344031 -0.54926103 0.12581515 0.14792483 0.46699196 -0.3630854 -0.3629464 -0.19954099 0.24411754 0.035009656 -0.36231497 -0.35632557 0.17379917 -0.060875237 0.23188041 -0.14291249 -0.15310271 -0.040682614 -0.068718866 0.2898552 -0.11473919 0.08559518 -0.23082067 0.16528921 -0.27029297 0.06743375 -0.22220348 0.16375849 -0.36656994 -0.14336497 -0.20289227 0.045615703 0.045127794 -0.15758365 -0.19212171 0.038326275 -0.24911056 -0.13070713 -0.21392669 -0.16124126 0.00084699114 0.1157099 0.39323145 -0.0008145333 -0.49794853 0.052363373 -0.22155574 0.07164495 0.15441543 -0.18892688 0.02797015 0.29328316 -0.12470731 -0.5450062
31 -0.002309566 -0.074287824 0.30779406 -0.060376376 0.060008015 0.16660368 -0.120367885 0.07603247 -0.0384725 0.10212117 0.09916794 0.20835277 0.04936169 0.0049295686 0.08460632 -0.15417543 0.0738175 -0.17397831 0.21752329 -0.06619087 -0.2798599 -0.044720393 0.10015201 0.020257814 -0.03780878 -0.120398656 -0.38526058 -0.049531452 0.025341414 0.44577318 -0.28475997 0.20500036 -0.20538509 0.15596284 -0.04116461 -0.07138162 -0.0268491 0.025789995 -0.050845895 -0.12078237 -0.023332264 0.15715024 0.14767966 -0.17623983 0.05330037 0.005056061 0.04090402 -0.0751768 0.14709924 -0.18715228 0.1873139 -0.00024340802 0.059442516 -0.12184052 0.22845922 -0.015807346 -0.17882648 0.026457006 -0.2278129 -0.11437654 -0.02691887 0.20280527 -0.4094961 0.07125225
30 -0.08272469 -0.020719362 0.3935151 -0.057179373 0.17632623 0.05359009 0.04026546 0.07257755 -0.14361708 0.07324715 0.07441965 0.0062385825 0.11368667 -0.07445223 0.10780219 -0.16230814 0.033539478 -0.2740186 0.13806136 -0.028821941 -0.2241562 0.050001632 0.10754762 0.044150308 -0.013492281 0.065253325 -0.23680267 -0.12482842 -0.004922119 0.45951256 -0.11214922 0.22941428 -0.34308067 0.12904073 0.05401698 -0.09349156 0.06062394 0.12889493 0.020393804 -0.29393056 -0.02766988 0.13080463 0.23938487 -0.44451427 0.17521925 0.028036872 -0.1279715 -0.038998175 0.016648099 -0.2799068 0.1654569 0.0016845737 0.078005284 -0.04366568 0.25831172 0.020550648 -0.043462586 -0.04895409 -0.28537124 -0.018657189 -0.043361925 0.34655985 -0.40123853 -0.051033568
25 -0.19052769 0.07443636 0.26274884 -0.26413074 0.23262095 -0.09104756 0.27066264 -0.023525251 -0.039964788 0.08176137 -0.01631538 -0.1687108 0.20134604 -0.15492955 0.1809653 -0.29435152 -0.11705857 -0.292268 -0.055599783 0.08574302 -0.12777825 0.2682062 0.10014967 -0.12746575 0.20356324 0.41189483 0.027430596 -0.14778891 -0.14472209 0.22672279 -0.04110067 0.36145356 -0.28735024 0.09076956 0.06358423 -0.019979589 0.119512394 0.2212309 -0.14590734 -0.49365744 -0.11968213 0.04016548 0.25903824 -0.54336095 0.26610273 -0.0909575 -0.25844365 -0.08528932 -0.34113568 -0.29883265 0.020272292 0.006162649 0.1098076 0.08466067 0.15644544 0.056216516 -0.16458982 -0.03453816 -0.19449453 0.25257802 -0.14805368 0.5361414 -0.36065108 -0.33244744
29 -0.06390018 0.007328616 0.1898184 -0.12859483 0.07795056 0.068704486 -0.013557373 0.04129923 0.02391185 0.11182913 0.07720326 0.06520043 0.06344213 -0.03625542 0.13474654 -0.18199359 -0.05402098 -0.16656314 0.0787894 -0.008941489 -0.24289162 0.088160835 0.0884209 -0.035977867 0.06859742 0.08575646 -0.20260172 -0.04142498 -0.048234437 0.27615905 -0.19507407 0.2355091 -0.16123192 0.11330492 -0.028558055 -0.048828784 0.008589547 0.08320774 -0.17387871 -0.19570605 -0.07244554 0.11165695 0.15718988 -0.2502645 0.107080996 -0.06916199 -0.07065542 -0.101124205 -0.09703268 -0.16424236 0.1362843 -0.0359096 0.09141122 -0.01848214 0.14742018 0.039535243 -0.21787664 -0.0001913769 -0.12544222 0.061818764 -0.048356164 0.2690644 -0.37465498 -0.09558646
5 -0.07005411 -0.27629304 -0.5136664 -0.032407887 -0.28069085 0.39260563 -0.008995271 0.286131 0.26780793 0.28553173 0.20146418 -0.29153645 0.034237627 0.17992382 0.41695818 -0.37644956 -0.33485287 -0.08589406 0.2980192 0.035560388 -0.42823154 -0.2840745 0.17078365 -0.123603925 0.2669814 -0.2808328 -0.1572389 0.0030179338 -0.10343788 0.26989797 -0.29578236 0.14914843 -0.054067023 0.18705738 -0.25735888 0.059755135 -0.23046318 0.082901664 -0.43760765 -0.005790822 -0.16342941 0.04388921 -0.035193905 0.09326542 -0.2397823 -0.024800956 -0.10097623 -0.15175365 -0.18668738 -0.037705027 0.016128581 0.04741752 0.37313327 -0.061351288 -0.45125398 0.01667318 -0.37264904 0.0928678 0.16106918 -0.16609675 0.03169124 0.18596625 -0.1666376 -0.4007246
11 -0.09350707 -0.3592026 -0.540778 0.0041789743 -0.297797 0.3668895 -0.0036376582 0.3307393 0.1867428 0.23540667 0.24713719 -0.35727707 0.07239387 0.21578206 0.43237188 -0.33531627 -0.3241906 -0.12008983 0.31088603 0.010286705 -0.42073515 -0.36627927 0.16819938 -0.09488835 0.2039648 -0.2752549 -0.22442637 0.01177291 -0.07844583 0.30275425 -0.26734453 0.08473214 -0.086258754 0.17342733 -0.31426054 0.06549425 -0.25659534 0.09444247 -0.4305668 -0.008186508 -0.17661704 0.060122535 0.002412585 0.052989904 -0.2625371 0.0015797791 -0.11872569 -0.15150714 -0.12801155 -0.06360057 0.039432745 0.07936181 0.3893979 -0.058862466 -0.48093104 0.015694179 -0.32605532 0.0751037 0.1730029 -0.2094808 0.041485183 0.16831866 -0.15922703 -0.41296846
26 -0.20613869 0.072112136 0.20903648 -0.28810427 0.2551558 -0.11900246 0.2962765 -0.03382675 -0.04589716 0.08745075 -0.034467366 -0.19454703 0.23167282 -0.15552968 0.19498017 -0.26034918 -0.14746118 -0.29840884 -0.07617286 0.09294252 -0.12074241 0.2968514 0.11179361 -0.14982916 0.208144 0.4677105 0.0732233 -0.123198934 -0.17719391 0.21495597 -0.0067881495 0.37531453 -0.27319795 0.060636535 0.05497034 -0.007265884 0.095160425 0.23150238 -0.17490539 -0.5200718 -0.10394592 0.019850045 0.26865768 -0.55279225 0.26878774 -0.13531816 -0.304057 -0.084893964 -0.41917554 -0.3005958 0.005346294 0.02124199 0.12792608 0.11707272 0.1153817 0.04799965 -0.1350128 -0.09226961 -0.13844633 0.284842 -0.16294557 0.5606741 -0.3356566 -0.37500668
20 -0.009987151 -0.025835618 0.13705336 -0.110040694 0.020860063 0.1973643 -0.10005358 0.07421692 0.10619075 0.19330123 0.08136033 0.17148577 0.02568616 0.014848272 0.14961635 -0.17748062 -0.043911844 -0.108282305 0.18733743 -0.03041217 -0.29601115 0.03569535 0.10100894 -0.057616156 0.08537739 -0.082940854 -0.24575505 -0.024172364 -0.050423343 0.3432762 -0.29340807 0.23700172 -0.09707918 0.16081809 -0.049069844 -0.060080413 -0.056921564 0.025747983 -0.20058942 -0.08802333 -0.022180198 0.11721741 0.10657337 -0.081661075 0.009377624 -0.07642162 0.008119423 -0.08753088 -0.03869796 -0.11081321 0.11719665 -0.018914241 0.13143265 -0.081114784 0.10922202 -0.025848169 -0.27958095 -0.00032257603 -0.105945386 -0.01671391 -0.032282487 0.19656739 -0.37016147 -0.010837661
13 0.044233833 -0.005518664 0.06913786 -0.16492337 -0.011409515 0.28942618 -0.18569718 0.046526477 0.24964271 0.26696545 0.055366207 0.2980053 -0.019659046 0.06315187 0.1640146 -0.23188303 -0.059939202 -0.02604045 0.22267182 -0.028649764 -0.3206953 0.054417115 0.11242237 -0.12793432 0.15534858 -0.15572637 -0.22520097 0.0026301523 -0.08222457 0.3031655 -0.42918274 0.29608107 0.035776354 0.17329776 -0.07440783 -0.040646516 -0.07472381 -0.026712403 -0.29057953 0.0024002343 -0.03909754 0.094341874 0.034786437 0.103921555 -0.058116324 -0.12460802 0.07090716 -0.11964684 -0.0687429 -0.04523032 0.09451352 -0.032181174 0.16330892 -0.11563285 0.05743539 -0.046148475 -0.42385605 0.026172867 -0.07017805 -0.002199361 -0.027276788 0.14919226 -0.3484692 0.0076538357
18 0.0031388565 -0.043617673 -8.378603e-05 -0.16831255 -0.037237365 0.25990778 -0.15221688 0.08492251 0.2314792 0.26067564 0.06313724 0.22739664 0.02355984 0.060143027 0.18842353 -0.21894266 -0.089380756 -0.053708013 0.20925018 -0.019259427 -0.3355056 0.031756725 0.10909727 -0.13129875 0.15454765 -0.11329633 -0.23054332 -0.0018002162 -0.07703963 0.27471843 -0.38777047 0.26680332 0.0009100898 0.17361252 -0.10828635 -0.03124114 -0.113179035 0.0064943605 -0.3199818 -0.011721112 -0.03782058 0.09817918 0.0509951 0.07729462 -0.03920498 -0.1302819 0.03678457 -0.10783776 -0.10569975 -0.070218936 0.05956121 -0.0151481535 0.19368346 -0.0938968 0.02266901 -0.05316714 -0.40736273 0.02713999 -0.027667407 0.0018362952 -0.046035025 0.16895841 -0.3450343 -0.05579278
22 0.0016846801 -0.049515575 -0.03263748 -0.15681486 -0.05547364 0.28071856 -0.12109091 0.09922419 0.26654336 0.2982398 0.05420614 0.18331793 0.026721714 0.048471365 0.2180811 -0.2400113 -0.12561129 -0.037993662 0.2216524 0.0053711743 -0.3261284 0.03873581 0.117739536 -0.13439119 0.1738569 -0.13025275 -0.17244662 -0.013736268 -0.09164534 0.27060086 -0.35336804 0.27266744 -0.015139611 0.18926562 -0.0956851 -0.03282319 -0.11986005 0.016825361 -0.33506358 -0.023872465 -0.0146503635 0.09484958 0.027564753 0.08114238 -0.058036756 -0.13259254 0.015272506 -0.08625091 -0.15336953 -0.0650242 0.023381244 0.0018870935 0.21888512 -0.088602215 -0.02975327 -0.072062075 -0.411301 0.021260496 -0.011188257 0.0048593874 -0.037375927 0.1939913 -0.3188433 -0.085599095
17 -0.1918203 -0.5019082 -0.7019528 0.12405084 -0.4014748 0.37782234 0.10235968 0.46638164 0.09429863 0.2097724 0.3346472 -0.67079496 0.121874265 0.2182486 0.53758115 -0.40195972 -0.41844976 -0.21163142 0.3403373 0.010904431 -0.46330544 -0.5643162 0.19922668 -0.023532156 0.19365154 -0.30237514 -0.2690693 -0.026827052 -0.024356429 0.35279804 -0.14673607 -0.022646477 -0.26515588 0.19600801 -0.37768134 0.08498616 -0.31340432 0.17205267 -0.42102605 -0.049808253 -0.2286818 0.07418756 0.0037574298 -0.08660813 -0.28206614 0.1034137 -0.25084558 -0.14099167 -0.13413882 -0.14855878 0.021987751 0.12245136 0.46593642 -0.044646926 -0.63230306 0.059754297 -0.19772406 0.11794684 0.21609762 -0.34649774 0.07703581 0.25144103 -0.11937955 -0.6040084
23 -0.05503009 -0.03995927 0.402803 -0.060573816 0.15512516 0.08029752 -0.024518013 0.06578825 -0.13769348 0.05912525 0.06844211 0.10203408 0.1053001 -0.06456074 0.065348454 -0.16401854 0.085678175 -0.24461548 0.15480487 -0.04051959 -0.23306045 0.02599205 0.081504285 0.033648472 -0.04376833 0.029192775 -0.30822834 -0.09981056 0.012232605 0.46484187 -0.16305178 0.22758357 -0.30370453 0.13327366 0.023361955 -0.0824092 0.027825229 0.08236289 0.011666881 -0.23528045 -0.026322346 0.14079508 0.2088443 -0.35616207 0.14929654 0.03617003 -0.05336941 -0.056532007 0.09745803 -0.2597776 0.18085349 0.0036391027 0.037790842 -0.08619989 0.2855371 0.01307924 -0.07736833 -0.016720759 -0.2916694 -0.0601756 -0.05411297 0.29229715 -0.42946172 0.018299276
10 0.030072782 0.0062849866 0.42006272 -0.0889474 0.12419542 0.14864893 -0.12628606 0.03343866 -0.037716664 0.10891634 0.07093596 0.2870085 0.029885216 -0.03912002 0.053665664 -0.124801025 0.10586997 -0.15451142 0.1757983 -0.07983752 -0.24769351 0.05305716 0.09983843 0.036272697 -0.029249143 -0.06700307 -0.36125636 -0.059191246 0.014896254 0.44855905 -0.28321478 0.24441446 -0.20749383 0.14728655 0.024957154 -0.10317665 0.0059668696 0.016231703 -0.0353526 -0.14177935 0.0068056667 0.16108721 0.17366959 -0.22795352 0.09262638 -0.013501413 0.039168555 -0.06693415 0.10833823 -0.19231895 0.21396984 -0.025790518 0.030424481 -0.09353311 0.3186813 -0.013263803 -0.17913468 -0.009213239 -0.2668421 -0.06126397 -0.0374406 0.20854321 -0.4269282 0.12110685
15 -0.07900108 -0.098554164 0.3818339 -0.015171949 0.12217171 0.06980684 -0.014344113 0.10516943 -0.21681507 0.0044035213 0.13346495 0.0037644883 0.106997795 -0.03609584 0.08543893 -0.14691989 0.080130085 -0.28146538 0.16593273 -0.07057736 -0.25411054 -0.07970238 0.0889997 0.08548801 -0.09035109 -0.0006891694 -0.39267534 -0.092492424 0.04122554 0.5051917 -0.14346328 0.16010317 -0.34613845 0.114625625 -0.007579717 -0.07814323 0.028851457 0.10345922 0.049760904 -0.25362998 -0.065410405 0.16564977 0.24343103 -0.429333 0.13135947 0.08026371 -0.07782476 -0.08103583 0.15570602 -0.2810319 0.250539 0.0017964178 0.027474172 -0.067640714 0.2611501 0.05607896 -0.004752782 -0.007585699 -0.2823166 -0.12603213 -0.02986959 0.28417724 -0.4225725 -0.013669172
19 -0.06287372 -0.08084275 0.3982779 -0.027745502 0.15052983 0.07939727 0.015386702 0.09238277 -0.19196726 0.02527275 0.08383257 0.014215657 0.10141892 -0.04311932 0.07806628 -0.16214173 0.08240397 -0.24717978 0.16228656 -0.05865004 -0.21487762 -0.04016118 0.088617995 0.08431007 -0.050394457 -0.014877588 -0.32960996 -0.10345368 0.025881149 0.49027047 -0.12165142 0.19609612 -0.35346735 0.13311274 0.034911882 -0.067131035 0.040691033 0.08407995 0.07283339 -0.25848976 -0.06116586 0.14571877 0.21379569 -0.41285172 0.11863179 0.08793486 -0.07404982 -0.058316287 0.15061247 -0.27799815 0.22627822 0.016869765 0.027615426 -0.082677044 0.26782787 0.04160431 -0.024471521 -0.010180064 -0.29637364 -0.10891026 -0.025022013 0.29982617 -0.3947572 0.00020049872
16 -0.100672886 -0.12127994 0.37880483 0.009677421 0.12923247 0.035141975 0.034486506 0.10669344 -0.26280493 -0.022268632 0.13554728 -0.04991514 0.12794988 -0.04910817 0.080639005 -0.13262294 0.07973749 -0.28971878 0.13773353 -0.060313486 -0.21146286 -0.08064884 0.09641854 0.10128344 -0.112316474 0.018497188 -0.354348 -0.099211246 0.044123065 0.49152547 -0.07629908 0.13426965 -0.3969234 0.11180793 0.0051583797 -0.07661098 0.03847321 0.12661956 0.081747025 -0.28056186 -0.045214176 0.1535643 0.24082926 -0.46970722 0.13960771 0.09451452 -0.11535447 -0.0503126 0.15629905 -0.2988383 0.21220048 0.033484355 0.031865887 -0.060184397 0.24443227 0.034397826 0.05908223 -0.023294147 -0.2943551 -0.1279867 -0.030135054 0.3058032 -0.38169745 -0.031892344
21 -0.05150389 -0.07958791 0.40221348 0.018849192 0.12617457 0.08020306 -0.07405893 0.09252076 -0.19663332 0.021326503 0.12324389 0.0979117 0.08215993 -0.04691591 0.059008416 -0.11464932 0.11278202 -0.26419634 0.18644337 -0.08237586 -0.24681926 -0.07863605 0.08938298 0.085743986 -0.118483864 -0.048693463 -0.39836136 -0.08800075 0.06677858 0.5000231 -0.15921739 0.15280053 -0.3278854 0.12103246 0.0014645813 -0.10437606 0.022342598 0.08134995 0.061957095 -0.20015164 -0.027225079 0.17462015 0.19887854 -0.35505006 0.12890448 0.08297234 -0.031694695 -0.046039008 0.21575002 -0.2616999 0.22156608 -0.0035577805 0.034327485 -0.09462105 0.30393332 0.016105384 0.006376882 -0.021005858 -0.29212695 -0.14662278 -0.02831308 0.24516645 -0.42356122 0.06415555
27 -0.057587307 -0.030276274 0.4724638 -0.029743087 0.16869798 0.07280507 -0.052930355 0.06852387 -0.18948796 0.04392435 0.10960122 0.1089088 0.07139251 -0.056743424 0.04999787 -0.10293374 0.104983024 -0.26555172 0.17032458 -0.08078278 -0.2435588 0.020001048 0.07768179 0.080573075 -0.07902949 -0.0016388919 -0.36089772 -0.08804888 0.02984129 0.5158539 -0.1608512 0.20228232 -0.3167351 0.12275801 0.042742383 -0.0930347 0.04974907 0.073681615 0.045794487 -0.23164307 -0.01962514 0.17825696 0.25366506 -0.4014556 0.16952896 0.031818338 -0.05663131 -0.060941897 0.14370544 -0.26713312 0.25429446 -0.021525357 0.032369062 -0.0625222 0.3389958 0.021576764 -0.022460757 -0.04799895 -0.29895195 -0.07022897 -0.04051422 0.2578715 -0.44043893 0.06396568
12 0.0022439784 -0.10315808 -0.22717084 -0.12392802 -0.14640617 0.3058268 -0.09316923 0.12773074 0.2861027 0.2779239 0.10287763 0.026695222 0.0024887598 0.1250972 0.2687459 -0.2839691 -0.20112187 -0.03065374 0.233559 0.017857807 -0.33971846 -0.061635442 0.12681694 -0.15217985 0.21589808 -0.19689143 -0.13311054 0.024028892 -0.120192885 0.2271548 -0.36008614 0.22581722 0.047924023 0.15877132 -0.15668105 0.027527751 -0.13034968 0.016069433 -0.38021067 0.0032863477 -0.08504063 0.049222857 -0.0038559523 0.13152915 -0.14287528 -0.105001576 -0.0025866572 -0.14687645 -0.15938036 -0.0045216624 0.027454337 -0.00012467353 0.25397786 -0.06844583 -0.19373675 -0.023980597 -0.4187339 0.0499735 0.069900006 -0.03582902 -0.014529611 0.13246158 -0.23561522 -0.18115759
